{"learner":{"attributes":{},"feature_names":[],"feature_types":[],"gradient_booster":{"model":{"gbtree_model_param":{"num_parallel_tree":"1","num_trees":"1500"},"iteration_indptr":[0,2,4,6,8,10,12,14,16,18,20,22,24,26,28,30,32,34,36,38,40,42,44,46,48,50,52,54,56,58,60,62,64,66,68,70,72,74,76,78,80,82,84,86,88,90,92,94,96,98,100,102,104,106,108,110,112,114,116,118,120,122,124,126,128,130,132,134,136,138,140,142,144,146,148,150,152,154,156,158,160,162,164,166,168,170,172,174,176,178,180,182,184,186,188,190,192,194,196,198,200,202,204,206,208,210,212,214,216,218,220,222,224,226,228,230,232,234,236,238,240,242,244,246,248,250,252,254,256,258,260,262,264,266,268,270,272,274,276,278,280,282,284,286,288,290,292,294,296,298,300,302,304,306,308,310,312,314,316,318,320,322,324,326,328,330,332,334,336,338,340,342,344,346,348,350,352,354,356,358,360,362,364,366,368,370,372,374,376,378,380,382,384,386,388,390,392,394,396,398,400,402,404,406,408,410,412,414,416,418,420,422,424,426,428,430,432,434,436,438,440,442,444,446,448,450,452,454,456,458,460,462,464,466,468,470,472,474,476,478,480,482,484,486,488,490,492,494,496,498,500,502,504,506,508,510,512,514,516,518,520,522,524,526,528,530,532,534,536,538,540,542,544,546,548,550,552,554,556,558,560,562,564,566,568,570,572,574,576,578,580,582,584,586,588,590,592,594,596,598,600,602,604,606,608,610,612,614,616,618,620,622,624,626,628,630,632,634,636,638,640,642,644,646,648,650,652,654,656,658,660,662,664,666,668,670,672,674,676,678,680,682,684,686,688,690,692,694,696,698,700,702,704,706,708,710,712,714,716,718,720,722,724,726,728,730,732,734,736,738,740,742,744,746,748,750,752,754,756,758,760,762,764,766,768,770,772,774,776,778,780,782,784,786,788,790,792,794,796,798,800,802,804,806,808,810,812,814,816,818,820,822,824,826,828,830,832,834,836,838,840,842,844,846,848,850,852,854,856,858,860,862,864,866,868,870,872,874,876,878,880,882,884,886,888,890,892,894,896,898,900,902,904,906,908,910,912,914,916,918,920,922,924,926,928,930,932,934,936,938,940,942,944,946,948,950,952,954,956,958,960,962,964,966,968,970,972,974,976,978,980,982,984,986,988,990,992,994,996,998,1000,1002,1004,1006,1008,1010,1012,1014,1016,1018,1020,1022,1024,1026,1028,1030,1032,1034,1036,1038,1040,1042,1044,1046,1048,1050,1052,1054,1056,1058,1060,1062,1064,1066,1068,1070,1072,1074,1076,1078,1080,1082,1084,1086,1088,1090,1092,1094,1096,1098,1100,1102,1104,1106,1108,1110,1112,1114,1116,1118,1120,1122,1124,1126,1128,1130,1132,1134,1136,1138,1140,1142,1144,1146,1148,1150,1152,1154,1156,1158,1160,1162,1164,1166,1168,1170,1172,1174,1176,1178,1180,1182,1184,1186,1188,1190,1192,1194,1196,1198,1200,1202,1204,1206,1208,1210,1212,1214,1216,1218,1220,1222,1224,1226,1228,1230,1232,1234,1236,1238,1240,1242,1244,1246,1248,1250,1252,1254,1256,1258,1260,1262,1264,1266,1268,1270,1272,1274,1276,1278,1280,1282,1284,1286,1288,1290,1292,1294,1296,1298,1300,1302,1304,1306,1308,1310,1312,1314,1316,1318,1320,1322,1324,1326,1328,1330,1332,1334,1336,1338,1340,1342,1344,1346,1348,1350,1352,1354,1356,1358,1360,1362,1364,1366,1368,1370,1372,1374,1376,1378,1380,1382,1384,1386,1388,1390,1392,1394,1396,1398,1400,1402,1404,1406,1408,1410,1412,1414,1416,1418,1420,1422,1424,1426,1428,1430,1432,1434,1436,1438,1440,1442,1444,1446,1448,1450,1452,1454,1456,1458,1460,1462,1464,1466,1468,1470,1472,1474,1476,1478,1480,1482,1484,1486,1488,1490,1492,1494,1496,1498,1500],"tree_info":[0,1,0,1,0,1,0,1,0,1,0,1,0,1,0,1,0,1,0,1,0,1,0,1,0,1,0,1,0,1,0,1,0,1,0,1,0,1,0,1,0,1,0,1,0,1,0,1,0,1,0,1,0,1,0,1,0,1,0,1,0,1,0,1,0,1,0,1,0,1,0,1,0,1,0,1,0,1,0,1,0,1,0,1,0,1,0,1,0,1,0,1,0,1,0,1,0,1,0,1,0,1,0,1,0,1,0,1,0,1,0,1,0,1,0,1,0,1,0,1,0,1,0,1,0,1,0,1,0,1,0,1,0,1,0,1,0,1,0,1,0,1,0,1,0,1,0,1,0,1,0,1,0,1,0,1,0,1,0,1,0,1,0,1,0,1,0,1,0,1,0,1,0,1,0,1,0,1,0,1,0,1,0,1,0,1,0,1,0,1,0,1,0,1,0,1,0,1,0,1,0,1,0,1,0,1,0,1,0,1,0,1,0,1,0,1,0,1,0,1,0,1,0,1,0,1,0,1,0,1,0,1,0,1,0,1,0,1,0,1,0,1,0,1,0,1,0,1,0,1,0,1,0,1,0,1,0,1,0,1,0,1,0,1,0,1,0,1,0,1,0,1,0,1,0,1,0,1,0,1,0,1,0,1,0,1,0,1,0,1,0,1,0,1,0,1,0,1,0,1,0,1,0,1,0,1,0,1,0,1,0,1,0,1,0,1,0,1,0,1,0,1,0,1,0,1,0,1,0,1,0,1,0,1,0,1,0,1,0,1,0,1,0,1,0,1,0,1,0,1,0,1,0,1,0,1,0,1,0,1,0,1,0,1,0,1,0,1,0,1,0,1,0,1,0,1,0,1,0,1,0,1,0,1,0,1,0,1,0,1,0,1,0,1,0,1,0,1,0,1,0,1,0,1,0,1,0,1,0,1,0,1,0,1,0,1,0,1,0,1,0,1,0,1,0,1,0,1,0,1,0,1,0,1,0,1,0,1,0,1,0,1,0,1,0,1,0,1,0,1,0,1,0,1,0,1,0,1,0,1,0,1,0,1,0,1,0,1,0,1,0,1,0,1,0,1,0,1,0,1,0,1,0,1,0,1,0,1,0,1,0,1,0,1,0,1,0,1,0,1,0,1,0,1,0,1,0,1,0,1,0,1,0,1,0,1,0,1,0,1,0,1,0,1,0,1,0,1,0,1,0,1,0,1,0,1,0,1,0,1,0,1,0,1,0,1,0,1,0,1,0,1,0,1,0,1,0,1,0,1,0,1,0,1,0,1,0,1,0,1,0,1,0,1,0,1,0,1,0,1,0,1,0,1,0,1,0,1,0,1,0,1,0,1,0,1,0,1,0,1,0,1,0,1,0,1,0,1,0,1,0,1,0,1,0,1,0,1,0,1,0,1,0,1,0,1,0,1,0,1,0,1,0,1,0,1,0,1,0,1,0,1,0,1,0,1,0,1,0,1,0,1,0,1,0,1,0,1,0,1,0,1,0,1,0,1,0,1,0,1,0,1,0,1,0,1,0,1,0,1,0,1,0,1,0,1,0,1,0,1,0,1,0,1,0,1,0,1,0,1,0,1,0,1,0,1,0,1,0,1,0,1,0,1,0,1,0,1,0,1,0,1,0,1,0,1,0,1,0,1,0,1,0,1,0,1,0,1,0,1,0,1,0,1,0,1,0,1,0,1,0,1,0,1,0,1,0,1,0,1,0,1,0,1,0,1,0,1,0,1,0,1,0,1,0,1,0,1,0,1,0,1,0,1,0,1,0,1,0,1,0,1,0,1,0,1,0,1,0,1,0,1,0,1,0,1,0,1,0,1,0,1,0,1,0,1,0,1,0,1,0,1,0,1,0,1,0,1,0,1,0,1,0,1,0,1,0,1,0,1,0,1,0,1,0,1,0,1,0,1,0,1,0,1,0,1,0,1,0,1,0,1,0,1,0,1,0,1,0,1,0,1,0,1,0,1,0,1,0,1,0,1,0,1,0,1,0,1,0,1,0,1,0,1,0,1,0,1,0,1,0,1,0,1,0,1,0,1,0,1,0,1,0,1,0,1,0,1,0,1,0,1,0,1,0,1,0,1,0,1,0,1,0,1,0,1,0,1,0,1,0,1,0,1,0,1,0,1,0,1,0,1,0,1,0,1,0,1,0,1,0,1,0,1,0,1,0,1,0,1,0,1,0,1,0,1,0,1,0,1,0,1,0,1,0,1,0,1,0,1,0,1,0,1,0,1,0,1,0,1,0,1,0,1,0,1,0,1,0,1,0,1,0,1,0,1,0,1,0,1,0,1,0,1,0,1,0,1,0,1,0,1,0,1,0,1,0,1,0,1,0,1,0,1,0,1,0,1,0,1,0,1,0,1,0,1,0,1,0,1,0,1,0,1,0,1,0,1,0,1,0,1,0,1,0,1,0,1,0,1,0,1,0,1,0,1,0,1,0,1,0,1,0,1,0,1,0,1,0,1,0,1,0,1,0,1,0,1,0,1,0,1,0,1,0,1,0,1,0,1,0,1,0,1,0,1,0,1,0,1,0,1,0,1,0,1,0,1,0,1,0,1,0,1,0,1,0,1,0,1,0,1,0,1,0,1,0,1,0,1,0,1,0,1,0,1,0,1,0,1,0,1,0,1,0,1,0,1,0,1,0,1,0,1,0,1,0,1,0,1,0,1,0,1,0,1,0,1,0,1,0,1,0,1,0,1,0,1,0,1,0,1,0,1,0,1,0,1,0,1,0,1,0,1,0,1,0,1,0,1,0,1,0,1,0,1,0,1,0,1,0,1,0,1,0,1,0,1,0,1,0,1,0,1,0,1,0,1,0,1,0,1,0,1,0,1,0,1,0,1,0,1,0,1,0,1,0,1,0,1,0,1,0,1,0,1,0,1,0,1,0,1,0,1,0,1,0,1,0,1,0,1,0,1,0,1,0,1,0,1,0,1,0,1,0,1,0,1,0,1,0,1,0,1,0,1,0,1,0,1,0,1,0,1,0,1,0,1,0,1,0,1,0,1,0,1,0,1,0,1,0,1,0,1,0,1,0,1,0,1,0,1,0,1,0,1,0,1,0,1,0,1,0,1,0,1,0,1,0,1,0,1,0,1,0,1,0,1,0,1,0,1,0,1,0,1,0,1,0,1,0,1,0,1,0,1,0,1,0,1,0,1,0,1,0,1,0,1,0,1,0,1,0,1,0,1,0,1,0,1,0,1,0,1,0,1,0,1,0,1,0,1,0,1,0,1,0,1,0,1,0,1,0,1,0,1,0,1,0,1,0,1,0,1,0,1,0,1,0,1,0,1,0,1,0,1,0,1,0,1,0,1,0,1,0,1,0,1,0,1,0,1,0,1,0,1,0,1,0,1],"trees":[{"base_weights":[-1.4869699E-1,-2.882169E-1,1.7684262E-1,-1.2571092E-1,-4.725128E-1,-9.119252E-2,2.982332E-1,-2.7746134E-3,1.5512675E-4,-3.6976743E-3,-6.1044386E-3,8.011869E-4,-2.7986907E-3,4.5519713E-3,1.958042E-3],"categories":[],"categories_nodes":[],"categories_segments":[],"categories_sizes":[],"default_left":[0,0,0,0,0,0,0,0,0,0,0,0,0,0,0],"id":0,"left_children":[1,3,5,7,9,11,13,-1,-1,-1,-1,-1,-1,-1,-1],"loss_changes":[3.1115015E2,1.4354694E2,6.690688E1,5.4641975E1,3.1611206E1,2.0757246E1,2.2660751E1,0E0,0E0,0E0,0E0,0E0,0E0,0E0,0E0],"parents":[2147483647,0,0,1,1,2,2,3,3,4,4,5,5,6,6],"right_children":[2,4,6,8,10,12,14,-1,-1,-1,-1,-1,-1,-1,-1],"split_conditions":[2E1,1.4E1,-2E0,1E1,2.3E1,-4.8E0,-6.2E0,-2.7746134E-3,1.5512675E-4,-3.6976743E-3,-6.1044386E-3,8.011869E-4,-2.7986907E-3,4.5519713E-3,1.958042E-3],"split_indices":[28,80,77,51,80,25,25,0,0,0,0,0,0,0,0],"split_type":[0,0,0,0,0,0,0,0,0,0,0,0,0,0,0],"sum_hessian":[6.8485E3,4.794E3,2.0545E3,2.5485E3,2.2455E3,6.405E2,1.414E3,1.228E3,1.3205E3,1.289E3,9.565E2,3.36E2,3.045E2,5.57E2,8.57E2],"tree_param":{"num_deleted":"0","num_feature":"106","num_nodes":"15","size_leaf_vector":"1"}},{"base_weights":[1.4869699E-1,2.882169E-1,-1.7684262E-1,1.2571092E-1,4.725128E-1,9.119252E-2,-2.982332E-1,2.7746134E-3,-1.5512675E-4,3.6976743E-3,6.1044386E-3,-8.011869E-4,2.7986907E-3,-4.5519713E-3,-1.958042E-3],"categories":[],"categories_nodes":[],"categories_segments":[],"categories_sizes":[],"default_left":[0,0,0,0,0,0,0,0,0,0,0,0,0,0,0],"id":1,"left_children":[1,3,5,7,9,11,13,-1,-1,-1,-1,-1,-1,-1,-1],"loss_changes":[3.1115015E2,1.4354694E2,6.690688E1,5.4641975E1,3.1611206E1,2.0757246E1,2.2660751E1,0E0,0E0,0E0,0E0,0E0,0E0,0E0,0E0],"parents":[2147483647,0,0,1,1,2,2,3,3,4,4,5,5,6,6],"right_children":[2,4,6,8,10,12,14,-1,-1,-1,-1,-1,-1,-1,-1],"split_conditions":[2E1,1.4E1,-2E0,1E1,2.3E1,-4.8E0,-6.2E0,2.7746134E-3,-1.5512675E-4,3.6976743E-3,6.1044386E-3,-8.011869E-4,2.7986907E-3,-4.5519713E-3,-1.958042E-3],"split_indices":[28,80,77,51,80,25,25,0,0,0,0,0,0,0,0],"split_type":[0,0,0,0,0,0,0,0,0,0,0,0,0,0,0],"sum_hessian":[6.8485E3,4.794E3,2.0545E3,2.5485E3,2.2455E3,6.405E2,1.414E3,1.228E3,1.3205E3,1.289E3,9.565E2,3.36E2,3.045E2,5.57E2,8.57E2],"tree_param":{"num_deleted":"0","num_feature":"106","num_nodes":"15","size_leaf_vector":"1"}},{"base_weights":[-1.472129E-1,-2.8534105E-1,1.750779E-1,-1.24455296E-1,-4.6780318E-1,-9.028409E-2,2.9525864E-1,-2.7469113E-3,1.5357701E-4,-3.6607764E-3,-6.0436837E-3,7.931992E-4,-2.770817E-3,4.506627E-3,1.9384921E-3],"categories":[],"categories_nodes":[],"categories_segments":[],"categories_sizes":[],"default_left":[0,0,0,0,0,0,0,0,0,0,0,0,0,0,0],"id":2,"left_children":[1,3,5,7,9,11,13,-1,-1,-1,-1,-1,-1,-1,-1],"loss_changes":[3.0496863E2,1.406998E2,6.557887E1,5.3556065E1,3.0986786E1,2.0345657E1,2.221202E1,0E0,0E0,0E0,0E0,0E0,0E0,0E0,0E0],"parents":[2147483647,0,0,1,1,2,2,3,3,4,4,5,5,6,6],"right_children":[2,4,6,8,10,12,14,-1,-1,-1,-1,-1,-1,-1,-1],"split_conditions":[2E1,1.4E1,-2E0,1E1,2.3E1,-4.8E0,-6.2E0,-2.7469113E-3,1.5357701E-4,-3.6607764E-3,-6.0436837E-3,7.931992E-4,-2.770817E-3,4.506627E-3,1.9384921E-3],"split_indices":[28,80,77,51,80,25,25,0,0,0,0,0,0,0,0],"split_type":[0,0,0,0,0,0,0,0,0,0,0,0,0,0,0],"sum_hessian":[6.84842E3,4.793937E3,2.0544827E3,2.5484905E3,2.2454468E3,6.404974E2,1.4139852E3,1.2279906E3,1.3205E3,1.2889823E3,9.5646436E2,3.359998E2,3.0449762E2,5.5698846E2,8.569967E2],"tree_param":{"num_deleted":"0","num_feature":"106","num_nodes":"15","size_leaf_vector":"1"}},{"base_weights":[1.4721292E-1,2.8534108E-1,-1.7507789E-1,1.2445534E-1,4.6780318E-1,9.028409E-2,-2.952586E-1,2.7469113E-3,-1.5357613E-4,3.6607764E-3,6.0436837E-3,-7.931992E-4,2.770817E-3,-4.506627E-3,-1.9384921E-3],"categories":[],"categories_nodes":[],"categories_segments":[],"categories_sizes":[],"default_left":[0,0,0,0,0,0,0,0,0,0,0,0,0,0,0],"id":3,"left_children":[1,3,5,7,9,11,13,-1,-1,-1,-1,-1,-1,-1,-1],"loss_changes":[3.0496857E2,1.406998E2,6.557887E1,5.355603E1,3.0986786E1,2.0345657E1,2.221202E1,0E0,0E0,0E0,0E0,0E0,0E0,0E0,0E0],"parents":[2147483647,0,0,1,1,2,2,3,3,4,4,5,5,6,6],"right_children":[2,4,6,8,10,12,14,-1,-1,-1,-1,-1,-1,-1,-1],"split_conditions":[2E1,1.4E1,-2E0,1E1,2.3E1,-4.8E0,-6.2E0,2.7469113E-3,-1.5357613E-4,3.6607764E-3,6.0436837E-3,-7.931992E-4,2.770817E-3,-4.506627E-3,-1.9384921E-3],"split_indices":[28,80,77,51,80,25,25,0,0,0,0,0,0,0,0],"split_type":[0,0,0,0,0,0,0,0,0,0,0,0,0,0,0],"sum_hessian":[6.84842E3,4.7939375E3,2.0544827E3,2.5484905E3,2.2454468E3,6.404974E2,1.4139851E3,1.2279906E3,1.3205E3,1.2889824E3,9.5646436E2,3.359998E2,3.0449762E2,5.569884E2,8.569967E2],"tree_param":{"num_deleted":"0","num_feature":"106","num_nodes":"15","size_leaf_vector":"1"}},{"base_weights":[-1.4574702E-1,-2.8250125E-1,1.7333367E-1,-1.23213135E-1,-4.6316215E-1,-8.9385405E-2,2.9231972E-1,-2.7195257E-3,1.5204158E-4,-3.624344E-3,-5.983973E-3,7.85292E-4,-2.7432628E-3,4.4619157E-3,1.9191516E-3],"categories":[],"categories_nodes":[],"categories_segments":[],"categories_sizes":[],"default_left":[0,0,0,0,0,0,0,0,0,0,0,0,0,0,0],"id":4,"left_children":[1,3,5,7,9,11,13,-1,-1,-1,-1,-1,-1,-1,-1],"loss_changes":[2.9891742E2,1.3792212E2,6.427869E1,5.2492752E1,3.0381927E1,1.994254E1,2.1774406E1,0E0,0E0,0E0,0E0,0E0,0E0,0E0,0E0],"parents":[2147483647,0,0,1,1,2,2,3,3,4,4,5,5,6,6],"right_children":[2,4,6,8,10,12,14,-1,-1,-1,-1,-1,-1,-1,-1],"split_conditions":[2E1,1.4E1,-2E0,1E1,2.3E1,-4.8E0,-6.2E0,-2.7195257E-3,1.5204158E-4,-3.624344E-3,-5.983973E-3,7.85292E-4,-2.7432628E-3,4.4619157E-3,1.9191516E-3],"split_indices":[28,80,77,51,80,25,25,0,0,0,0,0,0,0,0],"split_type":[0,0,0,0,0,0,0,0,0,0,0,0,0,0,0],"sum_hessian":[6.848182E3,4.7937515E3,2.054431E3,2.5484624E3,2.245289E3,6.404897E2,1.4139413E3,1.2279626E3,1.3204999E3,1.2889302E3,9.5635876E2,3.3599915E2,3.0449054E2,5.569543E2,8.56987E2],"tree_param":{"num_deleted":"0","num_feature":"106","num_nodes":"15","size_leaf_vector":"1"}},{"base_weights":[1.4574704E-1,2.8250128E-1,-1.7333367E-1,1.23213194E-1,4.6316212E-1,8.938542E-2,-2.9231974E-1,2.7195269E-3,-1.5204158E-4,3.6243445E-3,5.983972E-3,-7.85292E-4,2.7432633E-3,-4.4619166E-3,-1.9191515E-3],"categories":[],"categories_nodes":[],"categories_segments":[],"categories_sizes":[],"default_left":[0,0,0,0,0,0,0,0,0,0,0,0,0,0,0],"id":5,"left_children":[1,3,5,7,9,11,13,-1,-1,-1,-1,-1,-1,-1,-1],"loss_changes":[2.9891742E2,1.3792209E2,6.427872E1,5.249279E1,3.0381866E1,1.9942541E1,2.177443E1,0E0,0E0,0E0,0E0,0E0,0E0,0E0,0E0],"parents":[2147483647,0,0,1,1,2,2,3,3,4,4,5,5,6,6],"right_children":[2,4,6,8,10,12,14,-1,-1,-1,-1,-1,-1,-1,-1],"split_conditions":[2E1,1.4E1,-2E0,1E1,2.3E1,-4.8E0,-6.2E0,2.7195269E-3,-1.5204158E-4,3.6243445E-3,5.983972E-3,-7.85292E-4,2.7432633E-3,-4.4619166E-3,-1.9191515E-3],"split_indices":[28,80,77,51,80,25,25,0,0,0,0,0,0,0,0],"split_type":[0,0,0,0,0,0,0,0,0,0,0,0,0,0,0],"sum_hessian":[6.8481826E3,4.7937515E3,2.054431E3,2.5484624E3,2.245289E3,6.404897E2,1.4139412E3,1.2279626E3,1.3204999E3,1.2889303E3,9.563588E2,3.3599915E2,3.0449057E2,5.569542E2,8.5698694E2],"tree_param":{"num_deleted":"0","num_feature":"106","num_nodes":"15","size_leaf_vector":"1"}},{"base_weights":[-1.4429899E-1,-2.796967E-1,1.7160958E-1,-1.2198423E-1,-4.5858794E-1,-8.849636E-2,2.894158E-1,-2.692454E-3,1.5052283E-4,-3.5883682E-3,-5.925273E-3,7.774654E-4,-2.716024E-3,4.4178218E-3,1.9000175E-3],"categories":[],"categories_nodes":[],"categories_segments":[],"categories_sizes":[],"default_left":[0,0,0,0,0,0,0,0,0,0,0,0,0,0,0],"id":6,"left_children":[1,3,5,7,9,11,13,-1,-1,-1,-1,-1,-1,-1,-1],"loss_changes":[2.929935E2,1.3521158E2,6.3005722E1,5.1451675E1,2.9795715E1,1.9547726E1,2.1347595E1,0E0,0E0,0E0,0E0,0E0,0E0,0E0,0E0],"parents":[2147483647,0,0,1,1,2,2,3,3,4,4,5,5,6,6],"right_children":[2,4,6,8,10,12,14,-1,-1,-1,-1,-1,-1,-1,-1],"split_conditions":[2E1,1.4E1,-2E0,1E1,2.3E1,-4.8E0,-6.2E0,-2.692454E-3,1.5052283E-4,-3.5883682E-3,-5.925273E-3,7.774654E-4,-2.716024E-3,4.4178218E-3,1.9000175E-3],"split_indices":[28,80,77,51,80,25,25,0,0,0,0,0,0,0,0],"split_type":[0,0,0,0,0,0,0,0,0,0,0,0,0,0,0],"sum_hessian":[6.847793E3,4.7934463E3,2.0543462E3,2.5484165E3,2.24503E3,6.4047705E2,1.4138693E3,1.2279167E3,1.3204996E3,1.2888445E3,9.561856E2,3.359981E2,3.0447897E2,5.568982E2,8.56971E2],"tree_param":{"num_deleted":"0","num_feature":"106","num_nodes":"15","size_leaf_vector":"1"}},{"base_weights":[1.4429897E-1,2.7969673E-1,-1.7160963E-1,1.2198425E-1,4.5858794E-1,8.849636E-2,-2.8941587E-1,2.6924538E-3,-1.5052194E-4,3.5883682E-3,5.925273E-3,-7.774654E-4,2.716024E-3,-4.417822E-3,-1.9000185E-3],"categories":[],"categories_nodes":[],"categories_segments":[],"categories_sizes":[],"default_left":[0,0,0,0,0,0,0,0,0,0,0,0,0,0,0],"id":7,"left_children":[1,3,5,7,9,11,13,-1,-1,-1,-1,-1,-1,-1,-1],"loss_changes":[2.929936E2,1.3521158E2,6.300576E1,5.1451633E1,2.9795654E1,1.9547726E1,2.1347572E1,0E0,0E0,0E0,0E0,0E0,0E0,0E0,0E0],"parents":[2147483647,0,0,1,1,2,2,3,3,4,4,5,5,6,6],"right_children":[2,4,6,8,10,12,14,-1,-1,-1,-1,-1,-1,-1,-1],"split_conditions":[2E1,1.4E1,-2E0,1E1,2.3E1,-4.8E0,-6.2E0,2.6924538E-3,-1.5052194E-4,3.5883682E-3,5.925273E-3,-7.774654E-4,2.716024E-3,-4.417822E-3,-1.9000185E-3],"split_indices":[28,80,77,51,80,25,25,0,0,0,0,0,0,0,0],"split_type":[0,0,0,0,0,0,0,0,0,0,0,0,0,0,0],"sum_hessian":[6.847793E3,4.7934463E3,2.0543462E3,2.5484165E3,2.24503E3,6.4047705E2,1.4138691E3,1.2279166E3,1.3204998E3,1.2888445E3,9.561856E2,3.359981E2,3.0447897E2,5.568982E2,8.56971E2],"tree_param":{"num_deleted":"0","num_feature":"106","num_nodes":"15","size_leaf_vector":"1"}},{"base_weights":[-1.4286846E-1,-2.769268E-1,1.6990535E-1,-1.20768435E-1,-4.540789E-1,-8.761685E-2,2.8654638E-1,-2.6656892E-3,1.4901836E-4,-3.5528399E-3,-5.8675543E-3,7.6971686E-4,-2.6890945E-3,4.3743327E-3,1.8810878E-3],"categories":[],"categories_nodes":[],"categories_segments":[],"categories_sizes":[],"default_left":[0,0,0,0,0,0,0,0,0,0,0,0,0,0,0],"id":8,"left_children":[1,3,5,7,9,11,13,-1,-1,-1,-1,-1,-1,-1,-1],"loss_changes":[2.871939E2,1.3256604E2,6.175936E1,5.0432198E1,2.9227325E1,1.9161009E1,2.0931213E1,0E0,0E0,0E0,0E0,0E0,0E0,0E0,0E0],"parents":[2147483647,0,0,1,1,2,2,3,3,4,4,5,5,6,6],"right_children":[2,4,6,8,10,12,14,-1,-1,-1,-1,-1,-1,-1,-1],"split_conditions":[2E1,1.4E1,-2E0,1E1,2.3E1,-4.8E0,-6.2E0,-2.6656892E-3,1.4901836E-4,-3.5528399E-3,-5.8675543E-3,7.6971686E-4,-2.6890945E-3,4.3743327E-3,1.8810878E-3],"split_indices":[28,80,77,51,80,25,25,0,0,0,0,0,0,0,0],"split_type":[0,0,0,0,0,0,0,0,0,0,0,0,0,0,0],"sum_hessian":[6.847255E3,4.793026E3,2.0542292E3,2.5483528E3,2.2446729E3,6.404596E2,1.4137698E3,1.2278533E3,1.3204995E3,1.2887263E3,9.559466E2,3.3599664E2,3.0446295E2,5.568208E2,8.56949E2],"tree_param":{"num_deleted":"0","num_feature":"106","num_nodes":"15","size_leaf_vector":"1"}},{"base_weights":[1.4286844E-1,2.7692676E-1,-1.6990538E-1,1.2076846E-1,4.5407888E-1,8.761687E-2,-2.8654644E-1,2.6656904E-3,-1.4901867E-4,3.5528399E-3,5.8675534E-3,-7.6971686E-4,2.6890945E-3,-4.3743327E-3,-1.8810888E-3],"categories":[],"categories_nodes":[],"categories_segments":[],"categories_sizes":[],"default_left":[0,0,0,0,0,0,0,0,0,0,0,0,0,0,0],"id":9,"left_children":[1,3,5,7,9,11,13,-1,-1,-1,-1,-1,-1,-1,-1],"loss_changes":[2.8719394E2,1.3256607E2,6.1759396E1,5.043224E1,2.9227234E1,1.916101E1,2.093119E1,0E0,0E0,0E0,0E0,0E0,0E0,0E0,0E0],"parents":[2147483647,0,0,1,1,2,2,3,3,4,4,5,5,6,6],"right_children":[2,4,6,8,10,12,14,-1,-1,-1,-1,-1,-1,-1,-1],"split_conditions":[2E1,1.4E1,-2E0,1E1,2.3E1,-4.8E0,-6.2E0,2.6656904E-3,-1.4901867E-4,3.5528399E-3,5.8675534E-3,-7.6971686E-4,2.6890945E-3,-4.3743327E-3,-1.8810888E-3],"split_indices":[28,80,77,51,80,25,25,0,0,0,0,0,0,0,0],"split_type":[0,0,0,0,0,0,0,0,0,0,0,0,0,0,0],"sum_hessian":[6.8472554E3,4.793026E3,2.0542295E3,2.5483528E3,2.2446729E3,6.4045966E2,1.4137698E3,1.2278533E3,1.3204996E3,1.2887263E3,9.5594666E2,3.3599664E2,3.0446298E2,5.5682086E2,8.569489E2],"tree_param":{"num_deleted":"0","num_feature":"106","num_nodes":"15","size_leaf_vector":"1"}},{"base_weights":[-1.4145507E-1,-2.7419072E-1,1.6822065E-1,-1.1956556E-1,-4.4963333E-1,-8.674674E-2,2.837108E-1,-2.6392275E-3,1.4752941E-4,-3.5177483E-3,-5.810787E-3,7.620465E-4,-2.6624694E-3,4.331433E-3,1.8623604E-3],"categories":[],"categories_nodes":[],"categories_segments":[],"categories_sizes":[],"default_left":[0,0,0,0,0,0,0,0,0,0,0,0,0,0,0],"id":10,"left_children":[1,3,5,7,9,11,13,-1,-1,-1,-1,-1,-1,-1,-1],"loss_changes":[2.8151572E2,1.2998337E2,6.0538986E1,4.9433876E1,2.8675964E1,1.8782213E1,2.0524895E1,0E0,0E0,0E0,0E0,0E0,0E0,0E0,0E0],"parents":[2147483647,0,0,1,1,2,2,3,3,4,4,5,5,6,6],"right_children":[2,4,6,8,10,12,14,-1,-1,-1,-1,-1,-1,-1,-1],"split_conditions":[2E1,1.4E1,-2E0,1E1,2.3E1,-4.8E0,-6.2E0,-2.6392275E-3,1.4752941E-4,-3.5177483E-3,-5.810787E-3,7.620465E-4,-2.6624694E-3,4.331433E-3,1.8623604E-3],"split_indices":[28,80,77,51,80,25,25,0,0,0,0,0,0,0,0],"split_type":[0,0,0,0,0,0,0,0,0,0,0,0,0,0,0],"sum_hessian":[6.846574E3,4.7924927E3,2.0540813E3,2.5482722E3,2.2442207E3,6.404375E2,1.4136439E3,1.2277731E3,1.3204993E3,1.2885767E3,9.55644E2,3.359948E2,3.044427E2,5.567228E2,8.569211E2],"tree_param":{"num_deleted":"0","num_feature":"106","num_nodes":"15","size_leaf_vector":"1"}},{"base_weights":[1.4145507E-1,2.7419072E-1,-1.6822068E-1,1.195656E-1,4.4963333E-1,8.67467E-2,-2.8371084E-1,2.6392282E-3,-1.4752941E-4,3.5177483E-3,5.810787E-3,-7.620465E-4,2.6624685E-3,-4.3314323E-3,-1.8623614E-3],"categories":[],"categories_nodes":[],"categories_segments":[],"categories_sizes":[],"default_left":[0,0,0,0,0,0,0,0,0,0,0,0,0,0,0],"id":11,"left_children":[1,3,5,7,9,11,13,-1,-1,-1,-1,-1,-1,-1,-1],"loss_changes":[2.8151575E2,1.299833E2,6.053899E1,4.9433907E1,2.8675964E1,1.8782202E1,2.0524857E1,0E0,0E0,0E0,0E0,0E0,0E0,0E0,0E0],"parents":[2147483647,0,0,1,1,2,2,3,3,4,4,5,5,6,6],"right_children":[2,4,6,8,10,12,14,-1,-1,-1,-1,-1,-1,-1,-1],"split_conditions":[2E1,1.4E1,-2E0,1E1,2.3E1,-4.8E0,-6.2E0,2.6392282E-3,-1.4752941E-4,3.5177483E-3,5.810787E-3,-7.620465E-4,2.6624685E-3,-4.3314323E-3,-1.8623614E-3],"split_indices":[28,80,77,51,80,25,25,0,0,0,0,0,0,0,0],"split_type":[0,0,0,0,0,0,0,0,0,0,0,0,0,0,0],"sum_hessian":[6.846574E3,4.7924927E3,2.0540813E3,2.5482722E3,2.2442207E3,6.404375E2,1.4136438E3,1.227773E3,1.3204993E3,1.2885767E3,9.55644E2,3.359948E2,3.044427E2,5.5672284E2,8.56921E2],"tree_param":{"num_deleted":"0","num_feature":"106","num_nodes":"15","size_leaf_vector":"1"}},{"base_weights":[-1.4005856E-1,-2.7148792E-1,1.6655509E-1,-1.1837543E-1,-4.4524977E-1,-8.588586E-2,2.8090838E-1,-2.613064E-3,1.4605596E-4,-3.4830878E-3,-5.754942E-3,7.5445283E-4,-2.636143E-3,4.315921E-3,1.860722E-3],"categories":[],"categories_nodes":[],"categories_segments":[],"categories_sizes":[],"default_left":[0,0,0,0,0,0,0,0,0,0,0,0,0,0,0],"id":12,"left_children":[1,3,5,7,9,11,13,-1,-1,-1,-1,-1,-1,-1,-1],"loss_changes":[2.7595596E2,1.2746158E2,5.934394E1,4.845626E1,2.81409E1,1.8411148E1,2.0133171E1,0E0,0E0,0E0,0E0,0E0,0E0,0E0,0E0],"parents":[2147483647,0,0,1,1,2,2,3,3,4,4,5,5,6,6],"right_children":[2,4,6,8,10,12,14,-1,-1,-1,-1,-1,-1,-1,-1],"split_conditions":[2E1,1.4E1,-2E0,1E1,2.3E1,-4.8E0,-6.3E0,-2.613064E-3,1.4605596E-4,-3.4830878E-3,-5.754942E-3,7.5445283E-4,-2.636143E-3,4.315921E-3,1.860722E-3],"split_indices":[28,80,77,51,80,25,25,0,0,0,0,0,0,0,0],"split_type":[0,0,0,0,0,0,0,0,0,0,0,0,0,0,0],"sum_hessian":[6.8457544E3,4.791851E3,2.053903E3,2.5481753E3,2.243676E3,6.404109E2,1.4134922E3,1.2276764E3,1.3204989E3,1.2883965E3,9.5527954E2,3.359926E2,3.044183E2,5.446133E2,8.6887897E2],"tree_param":{"num_deleted":"0","num_feature":"106","num_nodes":"15","size_leaf_vector":"1"}},{"base_weights":[1.4005858E-1,2.7148792E-1,-1.665551E-1,1.1837546E-1,4.4524977E-1,8.58858E-2,-2.8090838E-1,2.6130637E-3,-1.4605506E-4,3.4830878E-3,5.754942E-3,-7.5445406E-4,2.636143E-3,-4.315921E-3,-1.8607223E-3],"categories":[],"categories_nodes":[],"categories_segments":[],"categories_sizes":[],"default_left":[0,0,0,0,0,0,0,0,0,0,0,0,0,0,0],"id":13,"left_children":[1,3,5,7,9,11,13,-1,-1,-1,-1,-1,-1,-1,-1],"loss_changes":[2.75956E2,1.2746155E2,5.9343918E1,4.845623E1,2.81409E1,1.841116E1,2.0133156E1,0E0,0E0,0E0,0E0,0E0,0E0,0E0,0E0],"parents":[2147483647,0,0,1,1,2,2,3,3,4,4,5,5,6,6],"right_children":[2,4,6,8,10,12,14,-1,-1,-1,-1,-1,-1,-1,-1],"split_conditions":[2E1,1.4E1,-2E0,1E1,2.3E1,-4.8E0,-6.3E0,2.6130637E-3,-1.4605506E-4,3.4830878E-3,5.754942E-3,-7.5445406E-4,2.636143E-3,-4.315921E-3,-1.8607223E-3],"split_indices":[28,80,77,51,80,25,25,0,0,0,0,0,0,0,0],"split_type":[0,0,0,0,0,0,0,0,0,0,0,0,0,0,0],"sum_hessian":[6.8457544E3,4.791851E3,2.053903E3,2.5481753E3,2.243676E3,6.404109E2,1.4134922E3,1.2276763E3,1.320499E3,1.2883965E3,9.5527954E2,3.359926E2,3.044183E2,5.446132E2,8.68879E2],"tree_param":{"num_deleted":"0","num_feature":"106","num_nodes":"15","size_leaf_vector":"1"}},{"base_weights":[-1.3867855E-1,1.42944E-1,-2.791623E-1,-9.99321E-2,2.571783E-1,-5.151282E-1,-1.6694345E-1,6.545256E-4,-2.646708E-3,3.980198E-3,1.7200275E-3,-4.237695E-3,-6.0723564E-3,-3.5315E-3,-6.1494537E-4],"categories":[],"categories_nodes":[],"categories_segments":[],"categories_sizes":[],"default_left":[0,0,0,0,0,0,0,0,0,0,0,0,0,0,0],"id":14,"left_children":[1,3,5,7,9,11,13,-1,-1,-1,-1,-1,-1,-1,-1],"loss_changes":[2.7088293E2,6.3257545E1,1.2086716E2,1.9899694E1,1.8529312E1,1.2126709E1,6.078984E1,0E0,0E0,0E0,0E0,0E0,0E0,0E0,0E0],"parents":[2147483647,0,0,1,1,2,2,3,3,4,4,5,5,6,6],"right_children":[2,4,6,8,10,12,14,-1,-1,-1,-1,-1,-1,-1,-1],"split_conditions":[4.4E-1,-2E0,-1.4E0,-4.8E0,-6.3E0,2.3E1,7E0,6.545256E-4,-2.646708E-3,3.980198E-3,1.7200275E-3,-4.237695E-3,-6.0723564E-3,-3.5315E-3,-6.1494537E-4],"split_indices":[3,77,77,25,25,1,29,0,0,0,0,0,0,0,0],"split_type":[0,0,0,0,0,0,0,0,0,0,0,0,0,0,0],"sum_hessian":[6.8448003E3,2.2780535E3,4.566747E3,7.287555E2,1.549298E3,1.4706908E3,3.0960562E3,3.639655E2,3.6479E2,5.8247577E2,9.6682214E2,7.4115845E2,7.295323E2,1.1185391E3,1.9775171E3],"tree_param":{"num_deleted":"0","num_feature":"106","num_nodes":"15","size_leaf_vector":"1"}},{"base_weights":[1.3867861E-1,-1.4294396E-1,2.7916235E-1,9.993206E-2,-2.5717825E-1,5.1512825E-1,1.6694352E-1,-6.545258E-4,2.6467072E-3,-3.980197E-3,-1.7200274E-3,4.237696E-3,6.0723573E-3,3.5315007E-3,6.1494624E-4],"categories":[],"categories_nodes":[],"categories_segments":[],"categories_sizes":[],"default_left":[0,0,0,0,0,0,0,0,0,0,0,0,0,0,0],"id":15,"left_children":[1,3,5,7,9,11,13,-1,-1,-1,-1,-1,-1,-1,-1],"loss_changes":[2.70883E2,6.3257515E1,1.2086716E2,1.9899693E1,1.8529297E1,1.2126678E1,6.0789825E1,0E0,0E0,0E0,0E0,0E0,0E0,0E0,0E0],"parents":[2147483647,0,0,1,1,2,2,3,3,4,4,5,5,6,6],"right_children":[2,4,6,8,10,12,14,-1,-1,-1,-1,-1,-1,-1,-1],"split_conditions":[4.4E-1,-2E0,-1.4E0,-4.8E0,-6.3E0,2.3E1,7E0,-6.545258E-4,2.6467072E-3,-3.980197E-3,-1.7200274E-3,4.237696E-3,6.0723573E-3,3.5315007E-3,6.1494624E-4],"split_indices":[3,77,77,25,25,1,29,0,0,0,0,0,0,0,0],"split_type":[0,0,0,0,0,0,0,0,0,0,0,0,0,0,0],"sum_hessian":[6.8448003E3,2.2780535E3,4.566747E3,7.2875555E2,1.549298E3,1.4706908E3,3.0960562E3,3.6396555E2,3.6479E2,5.8247577E2,9.6682214E2,7.4115845E2,7.2953235E2,1.1185391E3,1.9775171E3],"tree_param":{"num_deleted":"0","num_feature":"106","num_nodes":"15","size_leaf_vector":"1"}},{"base_weights":[-1.3731298E-1,-2.6630464E-1,1.6358224E-1,-1.1568403E-1,-4.3731743E-1,-8.397905E-2,2.7574074E-1,-2.5611923E-3,1.4948609E-4,-3.4205245E-3,-5.6538084E-3,5.3525635E-4,-2.8472538E-3,4.2095287E-3,1.8107431E-3],"categories":[],"categories_nodes":[],"categories_segments":[],"categories_sizes":[],"default_left":[0,0,0,0,0,0,0,0,0,0,0,0,0,0,0],"id":16,"left_children":[1,3,5,7,9,11,13,-1,-1,-1,-1,-1,-1,-1,-1],"loss_changes":[2.657119E2,1.2336542E2,5.706798E1,4.6764996E1,2.717633E1,1.771852E1,1.9363525E1,0E0,0E0,0E0,0E0,0E0,0E0,0E0,0E0],"parents":[2147483647,0,0,1,1,2,2,3,3,4,4,5,5,6,6],"right_children":[2,4,6,8,10,12,14,-1,-1,-1,-1,-1,-1,-1,-1],"split_conditions":[2E1,1.4E1,-2E0,1E1,2.3E1,-4.1E0,-6.2E0,-2.5611923E-3,1.4948609E-4,-3.4205245E-3,-5.6538084E-3,5.3525635E-4,-2.8472538E-3,4.2095287E-3,1.8107431E-3],"split_indices":[28,80,77,51,80,25,25,0,0,0,0,0,0,0,0],"split_type":[0,0,0,0,0,0,0,0,0,0,0,0,0,0,0],"sum_hessian":[6.843833E3,4.790356E3,2.053477E3,2.5479282E3,2.2424277E3,6.4034045E2,1.4131367E3,1.227431E3,1.3204971E3,1.2879825E3,9.544453E2,3.804666E2,2.5987384E2,5.563245E2,8.5681213E2],"tree_param":{"num_deleted":"0","num_feature":"106","num_nodes":"15","size_leaf_vector":"1"}},{"base_weights":[1.3731298E-1,2.6630464E-1,-1.6358222E-1,1.1568403E-1,4.3731743E-1,8.397905E-2,-2.757407E-1,2.5611923E-3,-1.494861E-4,3.4205248E-3,5.653808E-3,-5.352562E-4,2.8472536E-3,-4.2095273E-3,-1.8107434E-3],"categories":[],"categories_nodes":[],"categories_segments":[],"categories_sizes":[],"default_left":[0,0,0,0,0,0,0,0,0,0,0,0,0,0,0],"id":17,"left_children":[1,3,5,7,9,11,13,-1,-1,-1,-1,-1,-1,-1,-1],"loss_changes":[2.6571185E2,1.2336545E2,5.706797E1,4.6765E1,2.717627E1,1.7718515E1,1.9363487E1,0E0,0E0,0E0,0E0,0E0,0E0,0E0,0E0],"parents":[2147483647,0,0,1,1,2,2,3,3,4,4,5,5,6,6],"right_children":[2,4,6,8,10,12,14,-1,-1,-1,-1,-1,-1,-1,-1],"split_conditions":[2E1,1.4E1,-2E0,1E1,2.3E1,-4.1E0,-6.2E0,2.5611923E-3,-1.494861E-4,3.4205248E-3,5.653808E-3,-5.352562E-4,2.8472536E-3,-4.2095273E-3,-1.8107434E-3],"split_indices":[28,80,77,51,80,25,25,0,0,0,0,0,0,0,0],"split_type":[0,0,0,0,0,0,0,0,0,0,0,0,0,0,0],"sum_hessian":[6.843833E3,4.790356E3,2.053477E3,2.5479282E3,2.2424277E3,6.403404E2,1.4131367E3,1.227431E3,1.3204971E3,1.2879825E3,9.544453E2,3.8046658E2,2.598738E2,5.563245E2,8.568122E2],"tree_param":{"num_deleted":"0","num_feature":"106","num_nodes":"15","size_leaf_vector":"1"}},{"base_weights":[-1.3596492E-1,-3.3484548E-1,5.601963E-2,-1.7403348E-1,-4.7836646E-1,-1.973175E-1,1.7348948E-1,-2.537821E-3,3.5279787E-5,-3.8635465E-3,-6.3436907E-3,5.609229E-4,-3.3469924E-3,5.5263494E-4,3.2616598E-3],"categories":[],"categories_nodes":[],"categories_segments":[],"categories_sizes":[],"default_left":[0,0,0,0,0,0,0,0,0,0,0,0,0,0,0],"id":18,"left_children":[1,3,5,7,9,11,13,-1,-1,-1,-1,-1,-1,-1,-1],"loss_changes":[2.613226E2,7.750195E1,1.03687904E2,2.2471443E1,2.5243744E1,3.8449135E1,4.294477E1,0E0,0E0,0E0,0E0,0E0,0E0,0E0,0E0],"parents":[2147483647,0,0,1,1,2,2,3,3,4,4,5,5,6,6],"right_children":[2,4,6,8,10,12,14,-1,-1,-1,-1,-1,-1,-1,-1],"split_conditions":[1.5E1,1.2E1,-1.9E0,6E0,2.3E1,-4.8E0,2.4E1,-2.537821E-3,3.5279787E-5,-3.8635465E-3,-6.3436907E-3,5.609229E-4,-3.3469924E-3,5.5263494E-4,3.2616598E-3],"split_indices":[51,80,77,77,80,25,51,0,0,0,0,0,0,0,0],"split_type":[0,0,0,0,0,0,0,0,0,0,0,0,0,0,0],"sum_hessian":[6.84264E3,3.3605925E3,3.4820476E3,1.585872E3,1.7747206E3,1.1028804E3,2.3791672E3,1.0940634E3,4.918086E2,1.1184972E3,6.5622345E2,3.8792273E2,7.1495764E2,1.3416299E3,1.0375374E3],"tree_param":{"num_deleted":"0","num_feature":"106","num_nodes":"15","size_leaf_vector":"1"}},{"base_weights":[1.3596494E-1,3.348455E-1,-5.6019608E-2,1.7403351E-1,4.783665E-1,1.973175E-1,-1.7348944E-1,2.5378212E-3,-3.5279518E-5,3.8635468E-3,6.343691E-3,-5.609229E-4,3.3469924E-3,-5.5263453E-4,-3.2616593E-3],"categories":[],"categories_nodes":[],"categories_segments":[],"categories_sizes":[],"default_left":[0,0,0,0,0,0,0,0,0,0,0,0,0,0,0],"id":19,"left_children":[1,3,5,7,9,11,13,-1,-1,-1,-1,-1,-1,-1,-1],"loss_changes":[2.6132257E2,7.750198E1,1.0368788E2,2.247144E1,2.5243774E1,3.8449135E1,4.294477E1,0E0,0E0,0E0,0E0,0E0,0E0,0E0,0E0],"parents":[2147483647,0,0,1,1,2,2,3,3,4,4,5,5,6,6],"right_children":[2,4,6,8,10,12,14,-1,-1,-1,-1,-1,-1,-1,-1],"split_conditions":[1.5E1,1.2E1,-1.9E0,6E0,2.3E1,-4.8E0,2.4E1,2.5378212E-3,-3.5279518E-5,3.8635468E-3,6.343691E-3,-5.609229E-4,3.3469924E-3,-5.5263453E-4,-3.2616593E-3],"split_indices":[51,80,77,77,80,25,51,0,0,0,0,0,0,0,0],"split_type":[0,0,0,0,0,0,0,0,0,0,0,0,0,0,0],"sum_hessian":[6.84264E3,3.3605925E3,3.4820476E3,1.585872E3,1.7747206E3,1.1028804E3,2.3791672E3,1.0940634E3,4.918086E2,1.1184972E3,6.562234E2,3.8792273E2,7.1495764E2,1.3416299E3,1.0375374E3],"tree_param":{"num_deleted":"0","num_feature":"106","num_nodes":"15","size_leaf_vector":"1"}},{"base_weights":[-1.3463067E-1,1.3939402E-1,-2.7135268E-1,-9.622288E-2,2.5022677E-1,-5.014773E-1,-1.6201936E-1,6.4016884E-4,-2.5591322E-3,3.8725724E-3,1.6740791E-3,-4.114032E-3,-5.9233075E-3,-3.447365E-3,-5.8577314E-4],"categories":[],"categories_nodes":[],"categories_segments":[],"categories_sizes":[],"default_left":[0,0,0,0,0,0,0,0,0,0,0,0,0,0,0],"id":20,"left_children":[1,3,5,7,9,11,13,-1,-1,-1,-1,-1,-1,-1,-1],"loss_changes":[2.5639172E2,5.951856E1,1.1478049E2,1.8684875E1,1.752221E1,1.1785217E1,5.8501976E1,0E0,0E0,0E0,0E0,0E0,0E0,0E0,0E0],"parents":[2147483647,0,0,1,1,2,2,3,3,4,4,5,5,6,6],"right_children":[2,4,6,8,10,12,14,-1,-1,-1,-1,-1,-1,-1,-1],"split_conditions":[4.4E-1,-2E0,-1.4E0,-4.8E0,-6.3E0,2.3E1,7E0,6.4016884E-4,-2.5591322E-3,3.8725724E-3,1.6740791E-3,-4.114032E-3,-5.9233075E-3,-3.447365E-3,-5.8577314E-4],"split_indices":[3,77,77,25,25,1,29,0,0,0,0,0,0,0,0],"split_type":[0,0,0,0,0,0,0,0,0,0,0,0,0,0,0],"sum_hessian":[6.8414526E3,2.277254E3,4.5641987E3,7.2855884E2,1.5486951E3,1.4688914E3,3.0953071E3,3.6395288E2,3.6460593E2,5.8202E2,9.6667505E2,7.4038513E2,7.285062E2,1.1180615E3,1.9772456E3],"tree_param":{"num_deleted":"0","num_feature":"106","num_nodes":"15","size_leaf_vector":"1"}},{"base_weights":[1.3463067E-1,-1.3939402E-1,2.7135268E-1,9.6222885E-2,-2.5022677E-1,5.0147736E-1,1.6201933E-1,-6.40168E-4,2.5591317E-3,-3.8725727E-3,-1.6740791E-3,4.114032E-3,5.923308E-3,3.4473648E-3,5.8577297E-4],"categories":[],"categories_nodes":[],"categories_segments":[],"categories_sizes":[],"default_left":[0,0,0,0,0,0,0,0,0,0,0,0,0,0,0],"id":21,"left_children":[1,3,5,7,9,11,13,-1,-1,-1,-1,-1,-1,-1,-1],"loss_changes":[2.5639172E2,5.951857E1,1.1478055E2,1.868486E1,1.7522217E1,1.1785248E1,5.850197E1,0E0,0E0,0E0,0E0,0E0,0E0,0E0,0E0],"parents":[2147483647,0,0,1,1,2,2,3,3,4,4,5,5,6,6],"right_children":[2,4,6,8,10,12,14,-1,-1,-1,-1,-1,-1,-1,-1],"split_conditions":[4.4E-1,-2E0,-1.4E0,-4.8E0,-6.3E0,2.3E1,7E0,-6.40168E-4,2.5591317E-3,-3.8725727E-3,-1.6740791E-3,4.114032E-3,5.923308E-3,3.4473648E-3,5.8577297E-4],"split_indices":[3,77,77,25,25,1,29,0,0,0,0,0,0,0,0],"split_type":[0,0,0,0,0,0,0,0,0,0,0,0,0,0,0],"sum_hessian":[6.8414526E3,2.277254E3,4.5641987E3,7.2855884E2,1.5486952E3,1.4688914E3,3.0953071E3,3.639529E2,3.6460593E2,5.820201E2,9.6667505E2,7.4038513E2,7.2850616E2,1.1180615E3,1.9772456E3],"tree_param":{"num_deleted":"0","num_feature":"106","num_nodes":"15","size_leaf_vector":"1"}},{"base_weights":[-1.3331163E-1,-3.287559E-1,5.531155E-2,-1.703246E-1,-4.7023943E-1,-1.7456876E-1,1.7988203E-1,-2.4925931E-3,5.4026164E-5,-3.7970592E-3,-6.238663E-3,7.440259E-4,-3.1057703E-3,6.39434E-4,3.3160117E-3],"categories":[],"categories_nodes":[],"categories_segments":[],"categories_sizes":[],"default_left":[0,0,0,0,0,0,0,0,0,0,0,0,0,0,0],"id":22,"left_children":[1,3,5,7,9,11,13,-1,-1,-1,-1,-1,-1,-1,-1],"loss_changes":[2.5221915E2,7.5234985E1,9.974811E1,2.2009289E1,2.4441437E1,4.148079E1,3.97126E1,0E0,0E0,0E0,0E0,0E0,0E0,0E0,0E0],"parents":[2147483647,0,0,1,1,2,2,3,3,4,4,5,5,6,6],"right_children":[2,4,6,8,10,12,14,-1,-1,-1,-1,-1,-1,-1,-1],"split_conditions":[1.5E1,1.2E1,-1.4E0,6E0,2.3E1,-4.8E0,2.4E1,-2.4925931E-3,5.4026164E-5,-3.7970592E-3,-6.238663E-3,7.440259E-4,-3.1057703E-3,6.39434E-4,3.3160117E-3],"split_indices":[51,80,77,77,80,25,51,0,0,0,0,0,0,0,0],"split_type":[0,0,0,0,0,0,0,0,0,0,0,0,0,0,0],"sum_hessian":[6.8401455E3,3.358967E3,3.4811785E3,1.585618E3,1.773349E3,1.2233069E3,2.2578716E3,1.0938529E3,4.9176514E2,1.1179841E3,6.5536487E2,4.323384E2,7.909685E2,1.2806576E3,9.772138E2],"tree_param":{"num_deleted":"0","num_feature":"106","num_nodes":"15","size_leaf_vector":"1"}},{"base_weights":[1.3331163E-1,3.287559E-1,-5.5311546E-2,1.7032458E-1,4.7023943E-1,1.7456874E-1,-1.7988203E-1,2.492593E-3,-5.402617E-5,3.7970596E-3,6.238663E-3,-7.440259E-4,3.1057703E-3,-6.3943386E-4,-3.3160117E-3],"categories":[],"categories_nodes":[],"categories_segments":[],"categories_sizes":[],"default_left":[0,0,0,0,0,0,0,0,0,0,0,0,0,0,0],"id":23,"left_children":[1,3,5,7,9,11,13,-1,-1,-1,-1,-1,-1,-1,-1],"loss_changes":[2.5221915E2,7.5234985E1,9.974811E1,2.2009285E1,2.4441437E1,4.1480797E1,3.9712593E1,0E0,0E0,0E0,0E0,0E0,0E0,0E0,0E0],"parents":[2147483647,0,0,1,1,2,2,3,3,4,4,5,5,6,6],"right_children":[2,4,6,8,10,12,14,-1,-1,-1,-1,-1,-1,-1,-1],"split_conditions":[1.5E1,1.2E1,-1.4E0,6E0,2.3E1,-4.8E0,2.4E1,2.492593E-3,-5.402617E-5,3.7970596E-3,6.238663E-3,-7.440259E-4,3.1057703E-3,-6.3943386E-4,-3.3160117E-3],"split_indices":[51,80,77,77,80,25,51,0,0,0,0,0,0,0,0],"split_type":[0,0,0,0,0,0,0,0,0,0,0,0,0,0,0],"sum_hessian":[6.8401455E3,3.358967E3,3.4811785E3,1.585618E3,1.773349E3,1.2233069E3,2.2578716E3,1.0938529E3,4.9176514E2,1.1179841E3,6.5536487E2,4.323384E2,7.9096844E2,1.2806576E3,9.7721387E2],"tree_param":{"num_deleted":"0","num_feature":"106","num_nodes":"15","size_leaf_vector":"1"}},{"base_weights":[-1.3200766E-1,-2.565641E-1,1.584541E-1,-1.1080143E-1,-4.2226937E-1,-7.967745E-2,2.663708E-1,-2.9069167E-3,-1.4475045E-4,-3.3035725E-3,-5.4601217E-3,5.234179E-4,-2.7253868E-3,4.096536E-3,1.7631706E-3],"categories":[],"categories_nodes":[],"categories_segments":[],"categories_sizes":[],"default_left":[0,0,0,0,0,0,0,0,0,0,0,0,0,0,0],"id":24,"left_children":[1,3,5,7,9,11,13,-1,-1,-1,-1,-1,-1,-1,-1],"loss_changes":[2.4749466E2,1.155853E2,5.278971E1,4.4153114E1,2.5296844E1,1.6338203E1,1.81632E1,0E0,0E0,0E0,0E0,0E0,0E0,0E0,0E0],"parents":[2147483647,0,0,1,1,2,2,3,3,4,4,5,5,6,6],"right_children":[2,4,6,8,10,12,14,-1,-1,-1,-1,-1,-1,-1,-1],"split_conditions":[2E1,1.4E1,-2E0,7E0,2.3E1,-4.1E0,-6.3E0,-2.9069167E-3,-1.4475045E-4,-3.3035725E-3,-5.4601217E-3,5.234179E-4,-2.7253868E-3,4.096536E-3,1.7631706E-3],"split_indices":[28,80,77,29,80,25,25,0,0,0,0,0,0,0,0],"split_type":[0,0,0,0,0,0,0,0,0,0,0,0,0,0,0],"sum_hessian":[6.838735E3,4.786356E3,2.0523787E3,2.5472957E3,2.2390603E3,6.401251E2,1.4122537E3,8.8762726E2,1.6596685E3,1.2868784E3,9.5218195E2,3.804348E2,2.596903E2,5.436745E2,8.6857916E2],"tree_param":{"num_deleted":"0","num_feature":"106","num_nodes":"15","size_leaf_vector":"1"}},{"base_weights":[1.3200766E-1,2.565641E-1,-1.5845409E-1,1.10801436E-1,4.2226937E-1,7.967744E-2,-2.6637077E-1,2.906917E-3,1.4475037E-4,3.303572E-3,5.4601217E-3,-5.234182E-4,2.7253872E-3,-4.096536E-3,-1.76317E-3],"categories":[],"categories_nodes":[],"categories_segments":[],"categories_sizes":[],"default_left":[0,0,0,0,0,0,0,0,0,0,0,0,0,0,0],"id":25,"left_children":[1,3,5,7,9,11,13,-1,-1,-1,-1,-1,-1,-1,-1],"loss_changes":[2.4749461E2,1.155853E2,5.2789707E1,4.4153122E1,2.5296844E1,1.6338211E1,1.8163208E1,0E0,0E0,0E0,0E0,0E0,0E0,0E0,0E0],"parents":[2147483647,0,0,1,1,2,2,3,3,4,4,5,5,6,6],"right_children":[2,4,6,8,10,12,14,-1,-1,-1,-1,-1,-1,-1,-1],"split_conditions":[2E1,1.4E1,-2E0,7E0,2.3E1,-4.1E0,-6.3E0,2.906917E-3,1.4475037E-4,3.303572E-3,5.4601217E-3,-5.234182E-4,2.7253872E-3,-4.096536E-3,-1.76317E-3],"split_indices":[28,80,77,29,80,25,25,0,0,0,0,0,0,0,0],"split_type":[0,0,0,0,0,0,0,0,0,0,0,0,0,0,0],"sum_hessian":[6.838735E3,4.786356E3,2.052379E3,2.5472957E3,2.2390603E3,6.401251E2,1.4122537E3,8.8762726E2,1.6596685E3,1.2868784E3,9.5218195E2,3.804348E2,2.596903E2,5.436745E2,8.6857916E2],"tree_param":{"num_deleted":"0","num_feature":"106","num_nodes":"15","size_leaf_vector":"1"}},{"base_weights":[-1.3071962E-1,-3.2294497E-1,5.4748785E-2,-1.6718845E-1,-4.621466E-1,-1.9367556E-1,1.6589728E-1,-2.4535335E-3,6.799823E-5,-3.7320834E-3,-6.132273E-3,5.491405E-4,-3.2905212E-3,5.2582775E-4,3.126045E-3],"categories":[],"categories_nodes":[],"categories_segments":[],"categories_sizes":[],"default_left":[0,0,0,0,0,0,0,0,0,0,0,0,0,0,0],"id":26,"left_children":[1,3,5,7,9,11,13,-1,-1,-1,-1,-1,-1,-1,-1],"loss_changes":[2.4380914E2,7.273044E1,9.615201E1,2.157571E1,2.3590607E1,3.624611E1,3.9974075E1,0E0,0E0,0E0,0E0,0E0,0E0,0E0,0E0],"parents":[2147483647,0,0,1,1,2,2,3,3,4,4,5,5,6,6],"right_children":[2,4,6,8,10,12,14,-1,-1,-1,-1,-1,-1,-1,-1],"split_conditions":[1.5E1,1.2E1,-2E0,6E0,2.3E1,-4.8E0,2.4E1,-2.4535335E-3,6.799823E-5,-3.7320834E-3,-6.132273E-3,5.491405E-4,-3.2905212E-3,5.2582775E-4,3.126045E-3],"split_indices":[51,80,77,77,80,25,51,0,0,0,0,0,0,0,0],"split_type":[0,0,0,0,0,0,0,0,0,0,0,0,0,0,0],"sum_hessian":[6.8371387E3,3.3570469E3,3.4800918E3,1.585353E3,1.7716938E3,1.0755106E3,2.404581E3,1.0936268E3,4.917261E2,1.1173826E3,6.543112E2,3.794068E2,6.961038E2,1.3574585E3,1.0471226E3],"tree_param":{"num_deleted":"0","num_feature":"106","num_nodes":"15","size_leaf_vector":"1"}},{"base_weights":[1.3071962E-1,3.22945E-1,-5.4748792E-2,1.6718848E-1,4.6214664E-1,1.9367556E-1,-1.6589728E-1,2.4535337E-3,-6.799817E-5,3.7320831E-3,6.1322735E-3,-5.4914044E-4,3.2905207E-3,-5.25828E-4,-3.1260448E-3],"categories":[],"categories_nodes":[],"categories_segments":[],"categories_sizes":[],"default_left":[0,0,0,0,0,0,0,0,0,0,0,0,0,0,0],"id":27,"left_children":[1,3,5,7,9,11,13,-1,-1,-1,-1,-1,-1,-1,-1],"loss_changes":[2.438092E2,7.273044E1,9.615201E1,2.1575722E1,2.3590576E1,3.6246082E1,3.997406E1,0E0,0E0,0E0,0E0,0E0,0E0,0E0,0E0],"parents":[2147483647,0,0,1,1,2,2,3,3,4,4,5,5,6,6],"right_children":[2,4,6,8,10,12,14,-1,-1,-1,-1,-1,-1,-1,-1],"split_conditions":[1.5E1,1.2E1,-2E0,6E0,2.3E1,-4.8E0,2.4E1,2.4535337E-3,-6.799817E-5,3.7320831E-3,6.1322735E-3,-5.4914044E-4,3.2905207E-3,-5.25828E-4,-3.1260448E-3],"split_indices":[51,80,77,77,80,25,51,0,0,0,0,0,0,0,0],"split_type":[0,0,0,0,0,0,0,0,0,0,0,0,0,0,0],"sum_hessian":[6.8371387E3,3.3570469E3,3.4800918E3,1.585353E3,1.7716938E3,1.0755106E3,2.404581E3,1.0936268E3,4.9172614E2,1.1173827E3,6.543112E2,3.794068E2,6.961039E2,1.3574586E3,1.0471226E3],"tree_param":{"num_deleted":"0","num_feature":"106","num_nodes":"15","size_leaf_vector":"1"}},{"base_weights":[-1.2944527E-1,-3.1982738E-1,5.4209348E-2,-1.6553256E-1,-4.577878E-1,-1.6943642E-1,1.7536679E-1,-2.4293303E-3,6.731949E-5,-3.6960128E-3,-6.076855E-3,7.2356575E-4,-3.016293E-3,6.2884466E-4,3.2266115E-3],"categories":[],"categories_nodes":[],"categories_segments":[],"categories_sizes":[],"default_left":[0,0,0,0,0,0,0,0,0,0,0,0,0,0,0],"id":28,"left_children":[1,3,5,7,9,11,13,-1,-1,-1,-1,-1,-1,-1,-1],"loss_changes":[2.3905292E2,7.138153E1,9.4341064E1,2.1151207E1,2.3195496E1,3.912971E1,3.739141E1,0E0,0E0,0E0,0E0,0E0,0E0,0E0,0E0],"parents":[2147483647,0,0,1,1,2,2,3,3,4,4,5,5,6,6],"right_children":[2,4,6,8,10,12,14,-1,-1,-1,-1,-1,-1,-1,-1],"split_conditions":[1.5E1,1.2E1,-1.4E0,6E0,2.3E1,-4.8E0,2.4E1,-2.4293303E-3,6.731949E-5,-3.6960128E-3,-6.076855E-3,7.2356575E-4,-3.016293E-3,6.2884466E-4,3.2266115E-3],"split_indices":[51,80,77,77,80,25,51,0,0,0,0,0,0,0,0],"split_type":[0,0,0,0,0,0,0,0,0,0,0,0,0,0,0],"sum_hessian":[6.835512E3,3.3559197E3,3.4795925E3,1.5852157E3,1.770704E3,1.222524E3,2.2570684E3,1.0934883E3,4.917274E2,1.1170162E3,6.536877E2,4.3228583E2,7.9023816E2,1.2805754E3,9.764929E2],"tree_param":{"num_deleted":"0","num_feature":"106","num_nodes":"15","size_leaf_vector":"1"}},{"base_weights":[1.2944527E-1,3.1982738E-1,-5.4209348E-2,1.6553256E-1,4.5778778E-1,1.6943644E-1,-1.7536679E-1,2.4293298E-3,-6.731872E-5,3.6960123E-3,6.076855E-3,-7.235655E-4,3.016293E-3,-6.2884495E-4,-3.2266113E-3],"categories":[],"categories_nodes":[],"categories_segments":[],"categories_sizes":[],"default_left":[0,0,0,0,0,0,0,0,0,0,0,0,0,0,0],"id":29,"left_children":[1,3,5,7,9,11,13,-1,-1,-1,-1,-1,-1,-1,-1],"loss_changes":[2.3905289E2,7.138153E1,9.4341064E1,2.1151192E1,2.3195465E1,3.9129704E1,3.7391403E1,0E0,0E0,0E0,0E0,0E0,0E0,0E0,0E0],"parents":[2147483647,0,0,1,1,2,2,3,3,4,4,5,5,6,6],"right_children":[2,4,6,8,10,12,14,-1,-1,-1,-1,-1,-1,-1,-1],"split_conditions":[1.5E1,1.2E1,-1.4E0,6E0,2.3E1,-4.8E0,2.4E1,2.4293298E-3,-6.731872E-5,3.6960123E-3,6.076855E-3,-7.235655E-4,3.016293E-3,-6.2884495E-4,-3.2266113E-3],"split_indices":[51,80,77,77,80,25,51,0,0,0,0,0,0,0,0],"split_type":[0,0,0,0,0,0,0,0,0,0,0,0,0,0,0],"sum_hessian":[6.835512E3,3.3559197E3,3.4795923E3,1.5852157E3,1.770704E3,1.222524E3,2.2570684E3,1.0934883E3,4.9172742E2,1.1170162E3,6.5368774E2,4.3228583E2,7.9023816E2,1.2805754E3,9.7649286E2],"tree_param":{"num_deleted":"0","num_feature":"106","num_nodes":"15","size_leaf_vector":"1"}},{"base_weights":[-1.2818529E-1,1.0502619E-1,-2.7547324E-1,-1.2478468E-1,2.1078192E-1,-1.333157E-1,-4.3677202E-1,6.0958054E-4,-2.7133396E-3,7.66312E-4,3.1506275E-3,-2.8413963E-3,-3.3322527E-4,-3.4906277E-3,-5.544896E-3],"categories":[],"categories_nodes":[],"categories_segments":[],"categories_sizes":[],"default_left":[0,0,0,0,0,0,0,0,0,0,0,0,0,0,0],"id":30,"left_children":[1,3,5,7,9,11,13,-1,-1,-1,-1,-1,-1,-1,-1],"loss_changes":[2.3479843E2,6.434407E1,9.600336E1,2.273632E1,2.5335022E1,3.3595623E1,2.0065216E1,0E0,0E0,0E0,0E0,0E0,0E0,0E0,0E0],"parents":[2147483647,0,0,1,1,2,2,3,3,4,4,5,5,6,6],"right_children":[2,4,6,8,10,12,14,-1,-1,-1,-1,-1,-1,-1,-1],"split_conditions":[4.69E-1,-2E0,1.4E1,-4.8E0,2.4E1,7E0,2.3E1,6.0958054E-4,-2.7133396E-3,7.66312E-4,3.1506275E-3,-2.8413963E-3,-3.3322527E-4,-3.4906277E-3,-5.544896E-3],"split_indices":[3,77,80,25,51,29,80,0,0,0,0,0,0,0,0],"split_type":[0,0,0,0,0,0,0,0,0,0,0,0,0,0,0],"sum_hessian":[6.8337783E3,2.645406E3,4.188372E3,8.336581E2,1.8117479E3,2.2272524E3,1.9611196E3,3.6792212E2,4.6573596E2,7.93148E2,1.0185999E3,8.8720374E2,1.3400488E3,1.1260704E3,8.350492E2],"tree_param":{"num_deleted":"0","num_feature":"106","num_nodes":"15","size_leaf_vector":"1"}},{"base_weights":[1.2818527E-1,-1.05026186E-1,2.754732E-1,1.2478463E-1,-2.1078189E-1,1.3331568E-1,4.3677196E-1,-6.095816E-4,2.7133396E-3,-7.663122E-4,-3.1506272E-3,2.841396E-3,3.332252E-4,3.4906268E-3,5.544896E-3],"categories":[],"categories_nodes":[],"categories_segments":[],"categories_sizes":[],"default_left":[0,0,0,0,0,0,0,0,0,0,0,0,0,0,0],"id":31,"left_children":[1,3,5,7,9,11,13,-1,-1,-1,-1,-1,-1,-1,-1],"loss_changes":[2.3479837E2,6.434404E1,9.600336E1,2.2736336E1,2.5335007E1,3.359561E1,2.0065186E1,0E0,0E0,0E0,0E0,0E0,0E0,0E0,0E0],"parents":[2147483647,0,0,1,1,2,2,3,3,4,4,5,5,6,6],"right_children":[2,4,6,8,10,12,14,-1,-1,-1,-1,-1,-1,-1,-1],"split_conditions":[4.69E-1,-2E0,1.4E1,-4.8E0,2.4E1,7E0,2.3E1,-6.095816E-4,2.7133396E-3,-7.663122E-4,-3.1506272E-3,2.841396E-3,3.332252E-4,3.4906268E-3,5.544896E-3],"split_indices":[3,77,80,25,51,29,80,0,0,0,0,0,0,0,0],"split_type":[0,0,0,0,0,0,0,0,0,0,0,0,0,0,0],"sum_hessian":[6.8337783E3,2.645406E3,4.188372E3,8.336581E2,1.8117479E3,2.2272524E3,1.9611196E3,3.6792212E2,4.6573596E2,7.93148E2,1.01859985E3,8.8720374E2,1.3400488E3,1.1260704E3,8.3504926E2],"tree_param":{"num_deleted":"0","num_feature":"106","num_nodes":"15","size_leaf_vector":"1"}},{"base_weights":[-1.2693992E-1,-3.1408396E-1,5.3525425E-2,-1.6239665E-1,-4.498433E-1,-1.6603597E-1,1.7244495E-1,-2.3904468E-3,8.160818E-5,-3.6314733E-3,-5.9740054E-3,7.0851535E-4,-2.9563021E-3,6.2434707E-4,3.1657787E-3],"categories":[],"categories_nodes":[],"categories_segments":[],"categories_sizes":[],"default_left":[0,0,0,0,0,0,0,0,0,0,0,0,0,0,0],"id":32,"left_children":[1,3,5,7,9,11,13,-1,-1,-1,-1,-1,-1,-1,-1],"loss_changes":[2.3078506E2,6.9006714E1,9.087582E1,2.0734138E1,2.2421448E1,3.7564034E1,3.5774605E1,0E0,0E0,0E0,0E0,0E0,0E0,0E0,0E0],"parents":[2147483647,0,0,1,1,2,2,3,3,4,4,5,5,6,6],"right_children":[2,4,6,8,10,12,14,-1,-1,-1,-1,-1,-1,-1,-1],"split_conditions":[1.5E1,1.2E1,-1.4E0,6E0,2.3E1,-4.8E0,2.4E1,-2.3904468E-3,8.160818E-5,-3.6314733E-3,-5.9740054E-3,7.0851535E-4,-2.9563021E-3,6.2434707E-4,3.1657787E-3],"split_indices":[51,80,77,77,80,25,51,0,0,0,0,0,0,0,0],"split_type":[0,0,0,0,0,0,0,0,0,0,0,0,0,0,0],"sum_hessian":[6.831918E3,3.3535344E3,3.4783833E3,1.5848915E3,1.7686431E3,1.2219318E3,2.2564514E3,1.0932063E3,4.9168518E2,1.1162572E3,6.523858E2,4.3225635E2,7.896754E2,1.2805204E3,9.759311E2],"tree_param":{"num_deleted":"0","num_feature":"106","num_nodes":"15","size_leaf_vector":"1"}},{"base_weights":[1.2693994E-1,3.14084E-1,-5.3525414E-2,1.6239667E-1,4.4984332E-1,1.6603598E-1,-1.7244495E-1,2.3904468E-3,-8.160828E-5,3.6314733E-3,5.974006E-3,-7.0851506E-4,2.9563021E-3,-6.2434695E-4,-3.1657785E-3],"categories":[],"categories_nodes":[],"categories_segments":[],"categories_sizes":[],"default_left":[0,0,0,0,0,0,0,0,0,0,0,0,0,0,0],"id":33,"left_children":[1,3,5,7,9,11,13,-1,-1,-1,-1,-1,-1,-1,-1],"loss_changes":[2.3078503E2,6.9006805E1,9.087582E1,2.0734146E1,2.2421387E1,3.756403E1,3.5774612E1,0E0,0E0,0E0,0E0,0E0,0E0,0E0,0E0],"parents":[2147483647,0,0,1,1,2,2,3,3,4,4,5,5,6,6],"right_children":[2,4,6,8,10,12,14,-1,-1,-1,-1,-1,-1,-1,-1],"split_conditions":[1.5E1,1.2E1,-1.4E0,6E0,2.3E1,-4.8E0,2.4E1,2.3904468E-3,-8.160828E-5,3.6314733E-3,5.974006E-3,-7.0851506E-4,2.9563021E-3,-6.2434695E-4,-3.1657785E-3],"split_indices":[51,80,77,77,80,25,51,0,0,0,0,0,0,0,0],"split_type":[0,0,0,0,0,0,0,0,0,0,0,0,0,0,0],"sum_hessian":[6.8319175E3,3.3535344E3,3.4783833E3,1.5848915E3,1.768643E3,1.2219318E3,2.2564514E3,1.0932063E3,4.9168518E2,1.1162572E3,6.523858E2,4.3225632E2,7.896754E2,1.2805204E3,9.7593115E2],"tree_param":{"num_deleted":"0","num_feature":"106","num_nodes":"15","size_leaf_vector":"1"}},{"base_weights":[-1.2570806E-1,-2.4503963E-1,1.5241928E-1,-1.0545178E-1,-4.040769E-1,-1.4724901E-1,2.317341E-1,-2.3758817E-3,1.732248E-4,-3.161327E-3,-5.227913E-3,-2.5377795E-3,8.1323326E-4,3.7444355E-3,1.3896365E-3],"categories":[],"categories_nodes":[],"categories_segments":[],"categories_sizes":[],"default_left":[0,0,0,0,0,0,0,0,0,0,0,0,0,0,0],"id":34,"left_children":[1,3,5,7,9,11,13,-1,-1,-1,-1,-1,-1,-1,-1],"loss_changes":[2.2675346E2,1.0608206E2,4.879508E1,4.132815E1,2.3160278E1,1.0490016E1,2.1429443E1,0E0,0E0,0E0,0E0,0E0,0E0,0E0,0E0],"parents":[2147483647,0,0,1,1,2,2,3,3,4,4,5,5,6,6],"right_children":[2,4,6,8,10,12,14,-1,-1,-1,-1,-1,-1,-1,-1],"split_conditions":[2E1,1.4E1,3.59E-1,1E1,2.3E1,2.7E1,-6.2E0,-2.3758817E-3,1.732248E-4,-3.161327E-3,-5.227913E-3,-2.5377795E-3,8.1323326E-4,3.7444355E-3,1.3896365E-3],"split_indices":[28,80,55,51,80,28,25,0,0,0,0,0,0,0,0],"split_type":[0,0,0,0,0,0,0,0,0,0,0,0,0,0,0],"sum_hessian":[6.829985E3,4.7794595E3,2.050526E3,2.5462583E3,2.233201E3,4.289615E2,1.6215643E3,1.2259203E3,1.320338E3,1.2849595E3,9.482415E2,2.9251907E2,1.3644238E2,6.376406E2,9.8392365E2],"tree_param":{"num_deleted":"0","num_feature":"106","num_nodes":"15","size_leaf_vector":"1"}},{"base_weights":[1.2570806E-1,2.4503963E-1,-1.524193E-1,1.0545178E-1,4.0407693E-1,1.4724898E-1,-2.3173411E-1,2.3758821E-3,-1.7322501E-4,3.161327E-3,5.227913E-3,2.537779E-3,-8.132333E-4,-3.7444355E-3,-1.3896368E-3],"categories":[],"categories_nodes":[],"categories_segments":[],"categories_sizes":[],"default_left":[0,0,0,0,0,0,0,0,0,0,0,0,0,0,0],"id":35,"left_children":[1,3,5,7,9,11,13,-1,-1,-1,-1,-1,-1,-1,-1],"loss_changes":[2.2675348E2,1.0608203E2,4.879507E1,4.1328175E1,2.3160309E1,1.0490015E1,2.1429451E1,0E0,0E0,0E0,0E0,0E0,0E0,0E0,0E0],"parents":[2147483647,0,0,1,1,2,2,3,3,4,4,5,5,6,6],"right_children":[2,4,6,8,10,12,14,-1,-1,-1,-1,-1,-1,-1,-1],"split_conditions":[2E1,1.4E1,3.59E-1,1E1,2.3E1,2.7E1,-6.2E0,2.3758821E-3,-1.7322501E-4,3.161327E-3,5.227913E-3,2.537779E-3,-8.132333E-4,-3.7444355E-3,-1.3896368E-3],"split_indices":[28,80,55,51,80,28,25,0,0,0,0,0,0,0,0],"split_type":[0,0,0,0,0,0,0,0,0,0,0,0,0,0,0],"sum_hessian":[6.829985E3,4.7794595E3,2.050526E3,2.5462583E3,2.233201E3,4.289615E2,1.6215643E3,1.2259203E3,1.320338E3,1.2849595E3,9.482415E2,2.9251907E2,1.3644238E2,6.376406E2,9.839237E2],"tree_param":{"num_deleted":"0","num_feature":"106","num_nodes":"15","size_leaf_vector":"1"}},{"base_weights":[-1.2448929E-1,-3.0852255E-1,5.2905947E-2,-1.5928036E-1,-4.422324E-1,-1.8469039E-1,1.591486E-1,-2.3518854E-3,9.594363E-5,-3.569693E-3,-5.8756E-3,5.214645E-4,-3.1390085E-3,5.161226E-4,2.9854865E-3],"categories":[],"categories_nodes":[],"categories_segments":[],"categories_sizes":[],"default_left":[0,0,0,0,0,0,0,0,0,0,0,0,0,0,0],"id":36,"left_children":[1,3,5,7,9,11,13,-1,-1,-1,-1,-1,-1,-1,-1],"loss_changes":[2.2295898E2,6.6817566E1,8.782525E1,2.0327015E1,2.1690216E1,3.2917675E1,3.602048E1,0E0,0E0,0E0,0E0,0E0,0E0,0E0,0E0],"parents":[2147483647,0,0,1,1,2,2,3,3,4,4,5,5,6,6],"right_children":[2,4,6,8,10,12,14,-1,-1,-1,-1,-1,-1,-1,-1],"split_conditions":[1.5E1,1.2E1,-2E0,6E0,2.3E1,-4.8E0,2.4E1,-2.3518854E-3,9.594363E-5,-3.569693E-3,-5.8756E-3,5.214645E-4,-3.1390085E-3,5.161226E-4,2.9854865E-3],"split_indices":[51,80,77,77,80,25,51,0,0,0,0,0,0,0,0],"split_type":[0,0,0,0,0,0,0,0,0,0,0,0,0,0,0],"sum_hessian":[6.827964E3,3.3509175E3,3.4770464E3,1.5845215E3,1.766396E3,1.0741428E3,2.4029036E3,1.092884E3,4.9163754E2,1.1154327E3,6.5096326E2,3.7937057E2,6.947723E2,1.3572559E3,1.0456476E3],"tree_param":{"num_deleted":"0","num_feature":"106","num_nodes":"15","size_leaf_vector":"1"}},{"base_weights":[1.2448928E-1,3.0852255E-1,-5.2905966E-2,1.5928033E-1,4.422324E-1,1.8469037E-1,-1.5914862E-1,2.351885E-3,-9.594353E-5,3.5696935E-3,5.8756E-3,-5.214644E-4,3.1390085E-3,-5.161227E-4,-2.9854865E-3],"categories":[],"categories_nodes":[],"categories_segments":[],"categories_sizes":[],"default_left":[0,0,0,0,0,0,0,0,0,0,0,0,0,0,0],"id":37,"left_children":[1,3,5,7,9,11,13,-1,-1,-1,-1,-1,-1,-1,-1],"loss_changes":[2.2295895E2,6.681763E1,8.782526E1,2.0327003E1,2.1690216E1,3.291767E1,3.6020485E1,0E0,0E0,0E0,0E0,0E0,0E0,0E0,0E0],"parents":[2147483647,0,0,1,1,2,2,3,3,4,4,5,5,6,6],"right_children":[2,4,6,8,10,12,14,-1,-1,-1,-1,-1,-1,-1,-1],"split_conditions":[1.5E1,1.2E1,-2E0,6E0,2.3E1,-4.8E0,2.4E1,2.351885E-3,-9.594353E-5,3.5696935E-3,5.8756E-3,-5.214644E-4,3.1390085E-3,-5.161227E-4,-2.9854865E-3],"split_indices":[51,80,77,77,80,25,51,0,0,0,0,0,0,0,0],"split_type":[0,0,0,0,0,0,0,0,0,0,0,0,0,0,0],"sum_hessian":[6.827964E3,3.3509177E3,3.4770464E3,1.5845216E3,1.766396E3,1.0741428E3,2.4029036E3,1.092884E3,4.9163754E2,1.1154327E3,6.5096326E2,3.7937057E2,6.947723E2,1.357256E3,1.0456477E3],"tree_param":{"num_deleted":"0","num_feature":"106","num_nodes":"15","size_leaf_vector":"1"}},{"base_weights":[-1.2328462E-1,1.0188514E-1,-2.6558614E-1,-1.1956182E-1,2.0378962E-1,-3.6488912E-1,-4.716508E-2,5.871249E-4,-2.6039525E-3,7.51839E-4,3.0386986E-3,-2.9512914E-3,-5.356933E-3,8.3058584E-4,-1.7870226E-3],"categories":[],"categories_nodes":[],"categories_segments":[],"categories_sizes":[],"default_left":[0,0,0,0,0,0,0,0,0,0,0,0,0,0,0],"id":38,"left_children":[1,3,5,7,9,11,13,-1,-1,-1,-1,-1,-1,-1,-1],"loss_changes":[2.1877298E2,5.9698784E1,9.07215E1,2.0954798E1,2.3291191E1,3.410785E1,2.2431341E1,0E0,0E0,0E0,0E0,0E0,0E0,0E0,0E0],"parents":[2147483647,0,0,1,1,2,2,3,3,4,4,5,5,6,6],"right_children":[2,4,6,8,10,12,14,-1,-1,-1,-1,-1,-1,-1,-1],"split_conditions":[4.69E-1,-2E0,3.1E0,-4.8E0,2.4E1,2.3E1,3.2E0,5.871249E-4,-2.6039525E-3,7.51839E-4,3.0386986E-3,-2.9512914E-3,-5.356933E-3,8.3058584E-4,-1.7870226E-3],"split_indices":[3,77,77,25,51,80,25,0,0,0,0,0,0,0,0],"split_type":[0,0,0,0,0,0,0,0,0,0,0,0,0,0,0],"sum_hessian":[6.8258496E3,2.643388E3,4.182462E3,8.330114E2,1.8103766E3,2.8747942E3,1.3076675E3,3.678945E2,4.651169E2,7.9304474E2,1.01733185E3,2.043084E3,8.317102E2,6.5729987E2,6.503676E2],"tree_param":{"num_deleted":"0","num_feature":"106","num_nodes":"15","size_leaf_vector":"1"}},{"base_weights":[1.2328464E-1,-1.0188514E-1,2.6558617E-1,1.19561836E-1,-2.0378964E-1,3.6488914E-1,4.7165122E-2,-5.871249E-4,2.6039528E-3,-7.518392E-4,-3.0386986E-3,2.9512916E-3,5.356932E-3,-8.3058554E-4,1.7870232E-3],"categories":[],"categories_nodes":[],"categories_segments":[],"categories_sizes":[],"default_left":[0,0,0,0,0,0,0,0,0,0,0,0,0,0,0],"id":39,"left_children":[1,3,5,7,9,11,13,-1,-1,-1,-1,-1,-1,-1,-1],"loss_changes":[2.1877303E2,5.969879E1,9.0721436E1,2.0954807E1,2.3291183E1,3.410785E1,2.2431345E1,0E0,0E0,0E0,0E0,0E0,0E0,0E0,0E0],"parents":[2147483647,0,0,1,1,2,2,3,3,4,4,5,5,6,6],"right_children":[2,4,6,8,10,12,14,-1,-1,-1,-1,-1,-1,-1,-1],"split_conditions":[4.69E-1,-2E0,3.1E0,-4.8E0,2.4E1,2.3E1,3.2E0,-5.871249E-4,2.6039528E-3,-7.518392E-4,-3.0386986E-3,2.9512916E-3,5.356932E-3,-8.3058554E-4,1.7870232E-3],"split_indices":[3,77,77,25,51,80,25,0,0,0,0,0,0,0,0],"split_type":[0,0,0,0,0,0,0,0,0,0,0,0,0,0,0],"sum_hessian":[6.8258496E3,2.643388E3,4.1824614E3,8.330114E2,1.8103766E3,2.8747942E3,1.3076675E3,3.678945E2,4.651169E2,7.9304474E2,1.01733185E3,2.043084E3,8.317102E2,6.5729987E2,6.503676E2],"tree_param":{"num_deleted":"0","num_feature":"106","num_nodes":"15","size_leaf_vector":"1"}},{"base_weights":[-1.2209219E-1,-3.0305976E-1,5.2270953E-2,-1.5624641E-1,-4.3474472E-1,-9.3565896E-2,2.1935661E-1,-2.3113578E-3,1.0316147E-4,-3.509093E-3,-5.778705E-3,1.290458E-3,-2.1601212E-3,3.1718884E-3,9.5263874E-4],"categories":[],"categories_nodes":[],"categories_segments":[],"categories_sizes":[],"default_left":[0,0,0,0,0,0,0,0,0,0,0,0,0,0,0],"id":40,"left_children":[1,3,5,7,9,11,13,-1,-1,-1,-1,-1,-1,-1,-1],"loss_changes":[2.1536227E2,6.467987E1,8.473609E1,1.977491E1,2.097464E1,5.0647224E1,1.964392E1,0E0,0E0,0E0,0E0,0E0,0E0,0E0,0E0],"parents":[2147483647,0,0,1,1,2,2,3,3,4,4,5,5,6,6],"right_children":[2,4,6,8,10,12,14,-1,-1,-1,-1,-1,-1,-1,-1],"split_conditions":[1.5E1,1.2E1,5.24E-1,6E0,2.3E1,-4.8E0,4.19E-1,-2.3113578E-3,1.0316147E-4,-3.509093E-3,-5.778705E-3,1.290458E-3,-2.1601212E-3,3.1718884E-3,9.5263874E-4],"split_indices":[51,80,55,77,80,25,3,0,0,0,0,0,0,0,0],"split_type":[0,0,0,0,0,0,0,0,0,0,0,0,0,0,0],"sum_hessian":[6.8236787E3,3.348062E3,3.4756165E3,1.5841292E3,1.7639329E3,1.856048E3,1.6195685E3,1.092524E3,4.916051E2,1.1145444E3,6.493884E2,6.586125E2,1.1974354E3,9.0473627E2,7.148323E2],"tree_param":{"num_deleted":"0","num_feature":"106","num_nodes":"15","size_leaf_vector":"1"}},{"base_weights":[1.2209218E-1,3.0305976E-1,-5.2270953E-2,1.5624641E-1,4.347447E-1,9.3565896E-2,-2.1935661E-1,2.3113573E-3,-1.0316095E-4,3.509093E-3,5.7787043E-3,-1.2904581E-3,2.1601212E-3,-3.1718884E-3,-9.5263903E-4],"categories":[],"categories_nodes":[],"categories_segments":[],"categories_sizes":[],"default_left":[0,0,0,0,0,0,0,0,0,0,0,0,0,0,0],"id":41,"left_children":[1,3,5,7,9,11,13,-1,-1,-1,-1,-1,-1,-1,-1],"loss_changes":[2.1536226E2,6.467984E1,8.473609E1,1.9774899E1,2.097467E1,5.0647232E1,1.964392E1,0E0,0E0,0E0,0E0,0E0,0E0,0E0,0E0],"parents":[2147483647,0,0,1,1,2,2,3,3,4,4,5,5,6,6],"right_children":[2,4,6,8,10,12,14,-1,-1,-1,-1,-1,-1,-1,-1],"split_conditions":[1.5E1,1.2E1,5.24E-1,6E0,2.3E1,-4.8E0,4.19E-1,2.3113573E-3,-1.0316095E-4,3.509093E-3,5.7787043E-3,-1.2904581E-3,2.1601212E-3,-3.1718884E-3,-9.5263903E-4],"split_indices":[51,80,55,77,80,25,3,0,0,0,0,0,0,0,0],"split_type":[0,0,0,0,0,0,0,0,0,0,0,0,0,0,0],"sum_hessian":[6.8236787E3,3.348062E3,3.4756165E3,1.5841292E3,1.7639329E3,1.856048E3,1.6195686E3,1.092524E3,4.9160507E2,1.1145444E3,6.493884E2,6.586125E2,1.1974354E3,9.047362E2,7.1483234E2],"tree_param":{"num_deleted":"0","num_feature":"106","num_nodes":"15","size_leaf_vector":"1"}},{"base_weights":[-1.20911926E-1,-2.3618798E-1,1.4760184E-1,-1.0122641E-1,-3.902844E-1,-1.4345998E-1,2.2466426E-1,-2.7186854E-3,-9.969507E-5,-5.258848E-3,-3.1674223E-3,-2.470623E-3,7.8705844E-4,3.6366042E-3,1.3440204E-3],"categories":[],"categories_nodes":[],"categories_segments":[],"categories_sizes":[],"default_left":[0,0,0,0,0,0,0,0,0,0,0,0,0,0,0],"id":42,"left_children":[1,3,5,7,9,11,13,-1,-1,-1,-1,-1,-1,-1,-1],"loss_changes":[2.1121246E2,9.9238525E1,4.6009796E1,3.964702E1,2.2056488E1,9.910222E0,2.028978E1,0E0,0E0,0E0,0E0,0E0,0E0,0E0,0E0],"parents":[2147483647,0,0,1,1,2,2,3,3,4,4,5,5,6,6],"right_children":[2,4,6,8,10,12,14,-1,-1,-1,-1,-1,-1,-1,-1],"split_conditions":[2E1,1.4E1,3.59E-1,7E0,8E0,2.7E1,-6.2E0,-2.7186854E-3,-9.969507E-5,-5.258848E-3,-3.1674223E-3,-2.470623E-3,7.8705844E-4,3.6366042E-3,1.3440204E-3],"split_indices":[28,80,55,29,51,28,25,0,0,0,0,0,0,0,0],"split_type":[0,0,0,0,0,0,0,0,0,0,0,0,0,0,0],"sum_hessian":[6.821479E3,4.772647E3,2.0488318E3,2.5451748E3,2.2274722E3,4.2871805E2,1.6201138E3,8.861589E2,1.659016E3,7.8109753E2,1.4463748E3,2.9229868E2,1.3641937E2,6.366688E2,9.83445E2],"tree_param":{"num_deleted":"0","num_feature":"106","num_nodes":"15","size_leaf_vector":"1"}},{"base_weights":[1.2091194E-1,2.36188E-1,-1.4760183E-1,1.01226404E-1,3.9028442E-1,1.4345995E-1,-2.2466421E-1,2.7186852E-3,9.969502E-5,5.2588484E-3,3.1674227E-3,2.470623E-3,-7.870592E-4,-3.636604E-3,-1.34402E-3],"categories":[],"categories_nodes":[],"categories_segments":[],"categories_sizes":[],"default_left":[0,0,0,0,0,0,0,0,0,0,0,0,0,0,0],"id":43,"left_children":[1,3,5,7,9,11,13,-1,-1,-1,-1,-1,-1,-1,-1],"loss_changes":[2.1121246E2,9.9238525E1,4.6009792E1,3.964702E1,2.2056519E1,9.910226E0,2.0289772E1,0E0,0E0,0E0,0E0,0E0,0E0,0E0,0E0],"parents":[2147483647,0,0,1,1,2,2,3,3,4,4,5,5,6,6],"right_children":[2,4,6,8,10,12,14,-1,-1,-1,-1,-1,-1,-1,-1],"split_conditions":[2E1,1.4E1,3.59E-1,7E0,8E0,2.7E1,-6.2E0,2.7186852E-3,9.969502E-5,5.2588484E-3,3.1674227E-3,2.470623E-3,-7.870592E-4,-3.636604E-3,-1.34402E-3],"split_indices":[28,80,55,29,51,28,25,0,0,0,0,0,0,0,0],"split_type":[0,0,0,0,0,0,0,0,0,0,0,0,0,0,0],"sum_hessian":[6.821479E3,4.772647E3,2.0488318E3,2.5451748E3,2.2274722E3,4.2871805E2,1.6201138E3,8.861589E2,1.6590159E3,7.8109753E2,1.4463748E3,2.9229868E2,1.3641937E2,6.3666876E2,9.83445E2],"tree_param":{"num_deleted":"0","num_feature":"106","num_nodes":"15","size_leaf_vector":"1"}},{"base_weights":[-1.1974377E-1,-2.976511E-1,5.157913E-2,-1.5337458E-1,-4.272236E-1,-1.5787034E-1,1.6495396E-1,-2.2754916E-3,1.1555844E-4,-3.441349E-3,-5.6927297E-3,6.607346E-4,-2.8061497E-3,6.120906E-4,3.0110935E-3],"categories":[],"categories_nodes":[],"categories_segments":[],"categories_sizes":[],"default_left":[0,0,0,0,0,0,0,0,0,0,0,0,0,0,0],"id":44,"left_children":[1,3,5,7,9,11,13,-1,-1,-1,-1,-1,-1,-1,-1],"loss_changes":[2.078934E2,6.2484955E1,8.255072E1,1.9389484E1,2.0603455E1,3.3581615E1,3.1837975E1,0E0,0E0,0E0,0E0,0E0,0E0,0E0,0E0],"parents":[2147483647,0,0,1,1,2,2,3,3,4,4,5,5,6,6],"right_children":[2,4,6,8,10,12,14,-1,-1,-1,-1,-1,-1,-1,-1],"split_conditions":[1.5E1,1.2E1,-1.4E0,6E0,2.3E1,-4.8E0,2.4E1,-2.2754916E-3,1.1555844E-4,-3.441349E-3,-5.6927297E-3,6.607346E-4,-2.8061497E-3,6.120906E-4,3.0110935E-3],"split_indices":[51,80,77,77,80,25,51,0,0,0,0,0,0,0,0],"split_type":[0,0,0,0,0,0,0,0,0,0,0,0,0,0,0],"sum_hessian":[6.8192363E3,3.344971E3,3.4742654E3,1.5837161E3,1.7612549E3,1.2200127E3,2.2542527E3,1.0921576E3,4.9155847E2,1.1134117E3,6.4784314E2,4.3210757E2,7.8790515E2,1.2802235E3,9.740291E2],"tree_param":{"num_deleted":"0","num_feature":"106","num_nodes":"15","size_leaf_vector":"1"}},{"base_weights":[1.1974377E-1,2.976511E-1,-5.157913E-2,1.5337458E-1,4.2722356E-1,1.5787037E-1,-1.6495398E-1,2.2754914E-3,-1.1555828E-4,3.441349E-3,5.6927293E-3,-6.6073425E-4,2.80615E-3,-6.1209075E-4,-3.0110935E-3],"categories":[],"categories_nodes":[],"categories_segments":[],"categories_sizes":[],"default_left":[0,0,0,0,0,0,0,0,0,0,0,0,0,0,0],"id":45,"left_children":[1,3,5,7,9,11,13,-1,-1,-1,-1,-1,-1,-1,-1],"loss_changes":[2.0789342E2,6.2484955E1,8.255074E1,1.938948E1,2.0603424E1,3.358162E1,3.1837975E1,0E0,0E0,0E0,0E0,0E0,0E0,0E0,0E0],"parents":[2147483647,0,0,1,1,2,2,3,3,4,4,5,5,6,6],"right_children":[2,4,6,8,10,12,14,-1,-1,-1,-1,-1,-1,-1,-1],"split_conditions":[1.5E1,1.2E1,-1.4E0,6E0,2.3E1,-4.8E0,2.4E1,2.2754914E-3,-1.1555828E-4,3.441349E-3,5.6927293E-3,-6.6073425E-4,2.80615E-3,-6.1209075E-4,-3.0110935E-3],"split_indices":[51,80,77,77,80,25,51,0,0,0,0,0,0,0,0],"split_type":[0,0,0,0,0,0,0,0,0,0,0,0,0,0,0],"sum_hessian":[6.8192363E3,3.344971E3,3.4742654E3,1.5837161E3,1.7612549E3,1.2200127E3,2.2542527E3,1.0921575E3,4.9155847E2,1.1134117E3,6.4784314E2,4.3210757E2,7.8790515E2,1.2802235E3,9.740291E2],"tree_param":{"num_deleted":"0","num_feature":"106","num_nodes":"15","size_leaf_vector":"1"}},{"base_weights":[-1.1859073E-1,-2.9483047E-1,5.1074382E-2,-1.5186298E-1,-4.2331943E-1,-9.161397E-2,2.1453352E-1,-2.2532088E-3,1.14404545E-4,-3.4087098E-3,-5.644064E-3,1.2504131E-3,-2.1082035E-3,3.0998264E-3,9.3565334E-4],"categories":[],"categories_nodes":[],"categories_segments":[],"categories_sizes":[],"default_left":[0,0,0,0,0,0,0,0,0,0,0,0,0,0,0],"id":46,"left_children":[1,3,5,7,9,11,13,-1,-1,-1,-1,-1,-1,-1,-1],"loss_changes":[2.0387903E2,6.1368805E1,8.105894E1,1.901014E1,2.0289368E1,4.7956562E1,1.8672615E1,0E0,0E0,0E0,0E0,0E0,0E0,0E0,0E0],"parents":[2147483647,0,0,1,1,2,2,3,3,4,4,5,5,6,6],"right_children":[2,4,6,8,10,12,14,-1,-1,-1,-1,-1,-1,-1,-1],"split_conditions":[1.5E1,1.2E1,5.24E-1,6E0,2.3E1,-4.8E0,4.19E-1,-2.2532088E-3,1.14404545E-4,-3.4087098E-3,-5.644064E-3,1.2504131E-3,-2.1082035E-3,3.0998264E-3,9.3565334E-4],"split_indices":[51,80,55,77,80,25,3,0,0,0,0,0,0,0,0],"split_type":[0,0,0,0,0,0,0,0,0,0,0,0,0,0,0],"sum_hessian":[6.816798E3,3.3432537E3,3.4735444E3,1.583501E3,1.7597527E3,1.8548394E3,1.618705E3,1.0919397E3,4.915612E2,1.1128446E3,6.4690814E2,6.583153E2,1.196524E3,9.039146E2,7.1479034E2],"tree_param":{"num_deleted":"0","num_feature":"106","num_nodes":"15","size_leaf_vector":"1"}},{"base_weights":[1.1859073E-1,2.9483047E-1,-5.1074397E-2,1.5186298E-1,4.2331943E-1,9.161397E-2,-2.1453355E-1,2.2532088E-3,-1.1440436E-4,3.4087102E-3,5.644064E-3,-1.2504135E-3,2.108204E-3,-3.099827E-3,-9.356536E-4],"categories":[],"categories_nodes":[],"categories_segments":[],"categories_sizes":[],"default_left":[0,0,0,0,0,0,0,0,0,0,0,0,0,0,0],"id":47,"left_children":[1,3,5,7,9,11,13,-1,-1,-1,-1,-1,-1,-1,-1],"loss_changes":[2.0387906E2,6.1368835E1,8.105895E1,1.9010136E1,2.0289337E1,4.7956573E1,1.8672615E1,0E0,0E0,0E0,0E0,0E0,0E0,0E0,0E0],"parents":[2147483647,0,0,1,1,2,2,3,3,4,4,5,5,6,6],"right_children":[2,4,6,8,10,12,14,-1,-1,-1,-1,-1,-1,-1,-1],"split_conditions":[1.5E1,1.2E1,5.24E-1,6E0,2.3E1,-4.8E0,4.19E-1,2.2532088E-3,-1.1440436E-4,3.4087102E-3,5.644064E-3,-1.2504135E-3,2.108204E-3,-3.099827E-3,-9.356536E-4],"split_indices":[51,80,55,77,80,25,3,0,0,0,0,0,0,0,0],"split_type":[0,0,0,0,0,0,0,0,0,0,0,0,0,0,0],"sum_hessian":[6.816798E3,3.3432537E3,3.4735444E3,1.583501E3,1.7597527E3,1.8548394E3,1.618705E3,1.0919397E3,4.915612E2,1.1128446E3,6.4690814E2,6.583153E2,1.196524E3,9.039146E2,7.1479034E2],"tree_param":{"num_deleted":"0","num_feature":"106","num_nodes":"15","size_leaf_vector":"1"}},{"base_weights":[-1.1744851E-1,-2.2980364E-1,1.4412606E-1,-9.831843E-2,-3.8020316E-1,-1.4069803E-1,2.1955787E-1,-2.6587103E-3,-8.763267E-5,-5.134379E-3,-3.0802998E-3,-2.4203449E-3,7.6506526E-4,3.556862E-3,1.3123841E-3],"categories":[],"categories_nodes":[],"categories_segments":[],"categories_sizes":[],"default_left":[0,0,0,0,0,0,0,0,0,0,0,0,0,0,0],"id":48,"left_children":[1,3,5,7,9,11,13,-1,-1,-1,-1,-1,-1,-1,-1],"loss_changes":[2.0033142E2,9.424986E1,4.404109E1,3.8190033E1,2.1224426E1,9.472543E0,1.9429207E1,0E0,0E0,0E0,0E0,0E0,0E0,0E0,0E0],"parents":[2147483647,0,0,1,1,2,2,3,3,4,4,5,5,6,6],"right_children":[2,4,6,8,10,12,14,-1,-1,-1,-1,-1,-1,-1,-1],"split_conditions":[2E1,1.4E1,3.59E-1,7E0,8E0,2.7E1,-6.2E0,-2.6587103E-3,-8.763267E-5,-5.134379E-3,-3.0802998E-3,-2.4203449E-3,7.6506526E-4,3.556862E-3,1.3123841E-3],"split_indices":[28,80,55,29,51,28,25,0,0,0,0,0,0,0,0],"split_type":[0,0,0,0,0,0,0,0,0,0,0,0,0,0,0],"sum_hessian":[6.814361E3,4.7669263E3,2.0474346E3,2.5442747E3,2.2226516E3,4.2851877E2,1.6189158E3,8.855298E2,1.6587448E3,7.788138E2,1.4438379E3,2.921175E2,1.364013E2,6.358466E2,9.8306915E2],"tree_param":{"num_deleted":"0","num_feature":"106","num_nodes":"15","size_leaf_vector":"1"}},{"base_weights":[1.1744851E-1,2.2980364E-1,-1.4412606E-1,9.831844E-2,3.8020316E-1,1.4069805E-1,-2.1955787E-1,2.6587108E-3,8.763272E-5,5.134379E-3,3.0802998E-3,2.420345E-3,-7.6506526E-4,-3.5568618E-3,-1.3123844E-3],"categories":[],"categories_nodes":[],"categories_segments":[],"categories_sizes":[],"default_left":[0,0,0,0,0,0,0,0,0,0,0,0,0,0,0],"id":49,"left_children":[1,3,5,7,9,11,13,-1,-1,-1,-1,-1,-1,-1,-1],"loss_changes":[2.0033142E2,9.424983E1,4.404109E1,3.8190033E1,2.1224457E1,9.472542E0,1.9429207E1,0E0,0E0,0E0,0E0,0E0,0E0,0E0,0E0],"parents":[2147483647,0,0,1,1,2,2,3,3,4,4,5,5,6,6],"right_children":[2,4,6,8,10,12,14,-1,-1,-1,-1,-1,-1,-1,-1],"split_conditions":[2E1,1.4E1,3.59E-1,7E0,8E0,2.7E1,-6.2E0,2.6587108E-3,8.763272E-5,5.134379E-3,3.0802998E-3,2.420345E-3,-7.6506526E-4,-3.5568618E-3,-1.3123844E-3],"split_indices":[28,80,55,29,51,28,25,0,0,0,0,0,0,0,0],"split_type":[0,0,0,0,0,0,0,0,0,0,0,0,0,0,0],"sum_hessian":[6.814361E3,4.7669263E3,2.0474346E3,2.5442747E3,2.2226516E3,4.2851877E2,1.6189158E3,8.855298E2,1.6587448E3,7.788138E2,1.4438379E3,2.921175E2,1.364013E2,6.358466E2,9.8306915E2],"tree_param":{"num_deleted":"0","num_feature":"106","num_nodes":"15","size_leaf_vector":"1"}},{"base_weights":[-1.16317555E-1,-2.895945E-1,5.0395515E-2,-1.490728E-1,-4.16062E-1,-1.7527714E-1,1.512421E-1,-2.2183384E-3,1.2634412E-4,-3.3431973E-3,-5.5615297E-3,4.722371E-4,-2.969729E-3,5.0732173E-4,2.817911E-3],"categories":[],"categories_nodes":[],"categories_segments":[],"categories_sizes":[],"default_left":[0,0,0,0,0,0,0,0,0,0,0,0,0,0,0],"id":50,"left_children":[1,3,5,7,9,11,13,-1,-1,-1,-1,-1,-1,-1,-1],"loss_changes":[1.9682259E2,5.9309418E1,7.9067726E1,1.8640663E1,1.9943115E1,2.907167E1,3.1489532E1,0E0,0E0,0E0,0E0,0E0,0E0,0E0,0E0],"parents":[2147483647,0,0,1,1,2,2,3,3,4,4,5,5,6,6],"right_children":[2,4,6,8,10,12,14,-1,-1,-1,-1,-1,-1,-1,-1],"split_conditions":[1.5E1,1.2E1,-2E0,6E0,2.3E1,-4.8E0,2.4E1,-2.2183384E-3,1.2634412E-4,-3.3431973E-3,-5.5615297E-3,4.722371E-4,-2.969729E-3,5.0732173E-4,2.817911E-3],"split_indices":[51,80,77,77,80,25,51,0,0,0,0,0,0,0,0],"split_type":[0,0,0,0,0,0,0,0,0,0,0,0,0,0,0],"sum_hessian":[6.811904E3,3.339835E3,3.4720688E3,1.5830458E3,1.7567892E3,1.0721324E3,2.3999365E3,1.0915328E3,4.91513E2,1.1115771E3,6.4521204E2,3.7928455E2,6.9284796E2,1.356756E3,1.0431804E3],"tree_param":{"num_deleted":"0","num_feature":"106","num_nodes":"15","size_leaf_vector":"1"}},{"base_weights":[1.1631756E-1,2.895945E-1,-5.03955E-2,1.490728E-1,4.16062E-1,1.7527714E-1,-1.5124209E-1,2.2183384E-3,-1.2634456E-4,3.3431973E-3,5.5615297E-3,-4.7223736E-4,2.9697292E-3,-5.073216E-4,-2.8179106E-3],"categories":[],"categories_nodes":[],"categories_segments":[],"categories_sizes":[],"default_left":[0,0,0,0,0,0,0,0,0,0,0,0,0,0,0],"id":51,"left_children":[1,3,5,7,9,11,13,-1,-1,-1,-1,-1,-1,-1,-1],"loss_changes":[1.9682254E2,5.9309418E1,7.90677E1,1.8640675E1,1.9943146E1,2.9071678E1,3.1489521E1,0E0,0E0,0E0,0E0,0E0,0E0,0E0,0E0],"parents":[2147483647,0,0,1,1,2,2,3,3,4,4,5,5,6,6],"right_children":[2,4,6,8,10,12,14,-1,-1,-1,-1,-1,-1,-1,-1],"split_conditions":[1.5E1,1.2E1,-2E0,6E0,2.3E1,-4.8E0,2.4E1,2.2183384E-3,-1.2634456E-4,3.3431973E-3,5.5615297E-3,-4.7223736E-4,2.9697292E-3,-5.073216E-4,-2.8179106E-3],"split_indices":[51,80,77,77,80,25,51,0,0,0,0,0,0,0,0],"split_type":[0,0,0,0,0,0,0,0,0,0,0,0,0,0,0],"sum_hessian":[6.811904E3,3.3398352E3,3.4720688E3,1.5830458E3,1.7567893E3,1.0721324E3,2.3999365E3,1.0915328E3,4.91513E2,1.1115771E3,6.4521204E2,3.7928455E2,6.9284796E2,1.356756E3,1.0431805E3],"tree_param":{"num_deleted":"0","num_feature":"106","num_nodes":"15","size_leaf_vector":"1"}},{"base_weights":[-1.152014E-1,9.661004E-2,-2.4925649E-1,-1.1275108E-1,1.9296274E-1,-3.4412682E-1,-4.130019E-2,5.353259E-4,-2.4440358E-3,7.2475686E-4,2.8692016E-3,-2.778243E-3,-5.073723E-3,8.449243E-4,-1.6847878E-3],"categories":[],"categories_nodes":[],"categories_segments":[],"categories_sizes":[],"default_left":[0,0,0,0,0,0,0,0,0,0,0,0,0,0,0],"id":52,"left_children":[1,3,5,7,9,11,13,-1,-1,-1,-1,-1,-1,-1,-1],"loss_changes":[1.9339696E2,5.3283585E1,8.227353E1,1.8244188E1,2.045295E1,3.085904E1,2.0936844E1,0E0,0E0,0E0,0E0,0E0,0E0,0E0,0E0],"parents":[2147483647,0,0,1,1,2,2,3,3,4,4,5,5,6,6],"right_children":[2,4,6,8,10,12,14,-1,-1,-1,-1,-1,-1,-1,-1],"split_conditions":[4.69E-1,-2E0,3.1E0,-4.8E0,2.4E1,2.3E1,3.2E0,5.353259E-4,-2.4440358E-3,7.2475686E-4,2.8692016E-3,-2.778243E-3,-5.073723E-3,8.449243E-4,-1.6847878E-3],"split_indices":[3,77,77,25,51,80,25,0,0,0,0,0,0,0,0],"split_type":[0,0,0,0,0,0,0,0,0,0,0,0,0,0,0],"sum_hessian":[6.809246E3,2.6393176E3,4.1699287E3,8.317876E2,1.80753E3,2.8631128E3,1.306816E3,3.678138E2,4.6397382E2,7.927335E2,1.0147965E3,2.0380543E3,8.2505835E2,6.571566E2,6.4965936E2],"tree_param":{"num_deleted":"0","num_feature":"106","num_nodes":"15","size_leaf_vector":"1"}},{"base_weights":[1.1520141E-1,-9.661003E-2,2.4925652E-1,1.1275109E-1,-1.9296272E-1,3.4412685E-1,4.1300204E-2,-5.353259E-4,2.4440358E-3,-7.2475686E-4,-2.8692016E-3,2.7782433E-3,5.073724E-3,-8.449242E-4,1.6847881E-3],"categories":[],"categories_nodes":[],"categories_segments":[],"categories_sizes":[],"default_left":[0,0,0,0,0,0,0,0,0,0,0,0,0,0,0],"id":53,"left_children":[1,3,5,7,9,11,13,-1,-1,-1,-1,-1,-1,-1,-1],"loss_changes":[1.9339699E2,5.3283585E1,8.227353E1,1.8244186E1,2.045295E1,3.085904E1,2.0936848E1,0E0,0E0,0E0,0E0,0E0,0E0,0E0,0E0],"parents":[2147483647,0,0,1,1,2,2,3,3,4,4,5,5,6,6],"right_children":[2,4,6,8,10,12,14,-1,-1,-1,-1,-1,-1,-1,-1],"split_conditions":[4.69E-1,-2E0,3.1E0,-4.8E0,2.4E1,2.3E1,3.2E0,-5.353259E-4,2.4440358E-3,-7.2475686E-4,-2.8692016E-3,2.7782433E-3,5.073724E-3,-8.449242E-4,1.6847881E-3],"split_indices":[3,77,77,25,51,80,25,0,0,0,0,0,0,0,0],"split_type":[0,0,0,0,0,0,0,0,0,0,0,0,0,0,0],"sum_hessian":[6.809246E3,2.6393176E3,4.1699287E3,8.317876E2,1.80753E3,2.8631128E3,1.306816E3,3.678138E2,4.6397382E2,7.927335E2,1.0147965E3,2.0380543E3,8.2505835E2,6.571567E2,6.496593E2],"tree_param":{"num_deleted":"0","num_feature":"106","num_nodes":"15","size_leaf_vector":"1"}},{"base_weights":[-1.1409573E-1,-2.8453064E-1,4.9787834E-2,-1.4624956E-1,-4.0916318E-1,-8.900719E-2,2.0874488E-1,-2.1804671E-3,1.325805E-4,-3.2870967E-3,-5.4732272E-3,1.1974408E-3,-2.0392418E-3,3.0098155E-3,9.198943E-4],"categories":[],"categories_nodes":[],"categories_segments":[],"categories_sizes":[],"default_left":[0,0,0,0,0,0,0,0,0,0,0,0,0,0,0],"id":54,"left_children":[1,3,5,7,9,11,13,-1,-1,-1,-1,-1,-1,-1,-1],"loss_changes":[1.9015979E2,5.745514E1,7.660482E1,1.8138031E1,1.9324127E1,4.4497753E1,1.7401505E1,0E0,0E0,0E0,0E0,0E0,0E0,0E0,0E0],"parents":[2147483647,0,0,1,1,2,2,3,3,4,4,5,5,6,6],"right_children":[2,4,6,8,10,12,14,-1,-1,-1,-1,-1,-1,-1,-1],"split_conditions":[1.5E1,1.2E1,5.24E-1,6E0,2.3E1,-4.8E0,4.19E-1,-2.1804671E-3,1.325805E-4,-3.2870967E-3,-5.4732272E-3,1.1974408E-3,-2.0392418E-3,3.0098155E-3,9.198943E-4],"split_indices":[51,80,55,77,80,25,3,0,0,0,0,0,0,0,0],"split_type":[0,0,0,0,0,0,0,0,0,0,0,0,0,0,0],"sum_hessian":[6.806573E3,3.3362346E3,3.4703386E3,1.5825513E3,1.7536835E3,1.8528998E3,1.617439E3,1.0910731E3,4.914781E2,1.1104326E3,6.432508E2,6.5784906E2,1.1950508E3,9.0271625E2,7.1472266E2],"tree_param":{"num_deleted":"0","num_feature":"106","num_nodes":"15","size_leaf_vector":"1"}},{"base_weights":[1.14095725E-1,2.845306E-1,-4.9787834E-2,1.4624955E-1,4.0916315E-1,8.90072E-2,-2.087449E-1,2.1804667E-3,-1.325803E-4,3.2870967E-3,5.473228E-3,-1.1974408E-3,2.039242E-3,-3.0098155E-3,-9.198945E-4],"categories":[],"categories_nodes":[],"categories_segments":[],"categories_sizes":[],"default_left":[0,0,0,0,0,0,0,0,0,0,0,0,0,0,0],"id":55,"left_children":[1,3,5,7,9,11,13,-1,-1,-1,-1,-1,-1,-1,-1],"loss_changes":[1.9015976E2,5.745511E1,7.660483E1,1.8138016E1,1.9324127E1,4.4497753E1,1.7401497E1,0E0,0E0,0E0,0E0,0E0,0E0,0E0,0E0],"parents":[2147483647,0,0,1,1,2,2,3,3,4,4,5,5,6,6],"right_children":[2,4,6,8,10,12,14,-1,-1,-1,-1,-1,-1,-1,-1],"split_conditions":[1.5E1,1.2E1,5.24E-1,6E0,2.3E1,-4.8E0,4.19E-1,2.1804667E-3,-1.325803E-4,3.2870967E-3,5.473228E-3,-1.1974408E-3,2.039242E-3,-3.0098155E-3,-9.198945E-4],"split_indices":[51,80,55,77,80,25,3,0,0,0,0,0,0,0,0],"split_type":[0,0,0,0,0,0,0,0,0,0,0,0,0,0,0],"sum_hessian":[6.806573E3,3.3362346E3,3.4703386E3,1.5825513E3,1.7536835E3,1.8528998E3,1.617439E3,1.0910732E3,4.914781E2,1.1104326E3,6.432508E2,6.57849E2,1.1950508E3,9.0271625E2,7.1472266E2],"tree_param":{"num_deleted":"0","num_feature":"106","num_nodes":"15","size_leaf_vector":"1"}},{"base_weights":[-1.1300151E-1,-2.2158372E-1,1.396035E-1,-1.3639487E-1,-4.3991944E-1,-1.3710476E-1,2.1291521E-1,-2.9541466E-3,-4.4935968E-4,-3.2565363E-3,-5.1074186E-3,-2.3571097E-3,7.409264E-4,3.456189E-3,1.2692639E-3],"categories":[],"categories_nodes":[],"categories_segments":[],"categories_sizes":[],"default_left":[0,0,0,0,0,0,0,0,0,0,0,0,0,0,0],"id":56,"left_children":[1,3,5,7,9,11,13,-1,-1,-1,-1,-1,-1,-1,-1],"loss_changes":[1.8667746E2,8.8466156E1,4.154096E1,4.9801247E1,1.0640411E1,8.95597E0,1.8420532E1,0E0,0E0,0E0,0E0,0E0,0E0,0E0,0E0],"parents":[2147483647,0,0,1,1,2,2,3,3,4,4,5,5,6,6],"right_children":[2,4,6,8,10,12,14,-1,-1,-1,-1,-1,-1,-1,-1],"split_conditions":[2E1,2E1,3.59E-1,7E0,5.43E-1,2.7E1,-6.2E0,-2.9541466E-3,-4.4935968E-4,-3.2565363E-3,-5.1074186E-3,-2.3571097E-3,7.409264E-4,3.456189E-3,1.2692639E-3],"split_indices":[28,80,55,27,3,28,25,0,0,0,0,0,0,0,0],"split_type":[0,0,0,0,0,0,0,0,0,0,0,0,0,0,0],"sum_hessian":[6.8038604E3,4.7585303E3,2.0453302E3,3.424144E3,1.3343861E3,4.282123E2,1.6171179E3,1.2494657E3,2.1746785E3,5.127336E2,8.216525E2,2.9183914E2,1.3637317E2,6.3465564E2,9.824623E2],"tree_param":{"num_deleted":"0","num_feature":"106","num_nodes":"15","size_leaf_vector":"1"}},{"base_weights":[1.1300152E-1,2.2158372E-1,-1.3960351E-1,1.3639487E-1,4.3991944E-1,1.3710472E-1,-2.1291521E-1,2.9541461E-3,4.4935985E-4,3.2565363E-3,5.1074186E-3,2.3571092E-3,-7.4092724E-4,-3.4561886E-3,-1.2692639E-3],"categories":[],"categories_nodes":[],"categories_segments":[],"categories_sizes":[],"default_left":[0,0,0,0,0,0,0,0,0,0,0,0,0,0,0],"id":57,"left_children":[1,3,5,7,9,11,13,-1,-1,-1,-1,-1,-1,-1,-1],"loss_changes":[1.8667744E2,8.846617E1,4.1540943E1,4.980123E1,1.0640381E1,8.955976E0,1.8420532E1,0E0,0E0,0E0,0E0,0E0,0E0,0E0,0E0],"parents":[2147483647,0,0,1,1,2,2,3,3,4,4,5,5,6,6],"right_children":[2,4,6,8,10,12,14,-1,-1,-1,-1,-1,-1,-1,-1],"split_conditions":[2E1,2E1,3.59E-1,7E0,5.43E-1,2.7E1,-6.2E0,2.9541461E-3,4.4935985E-4,3.2565363E-3,5.1074186E-3,2.3571092E-3,-7.4092724E-4,-3.4561886E-3,-1.2692639E-3],"split_indices":[28,80,55,27,3,28,25,0,0,0,0,0,0,0,0],"split_type":[0,0,0,0,0,0,0,0,0,0,0,0,0,0,0],"sum_hessian":[6.8038604E3,4.7585303E3,2.0453302E3,3.424144E3,1.3343861E3,4.282123E2,1.6171179E3,1.2494657E3,2.1746785E3,5.127336E2,8.216526E2,2.9183914E2,1.3637317E2,6.3465564E2,9.824623E2],"tree_param":{"num_deleted":"0","num_feature":"106","num_nodes":"15","size_leaf_vector":"1"}},{"base_weights":[-1.1191734E-1,-2.7948576E-1,4.9101133E-2,-1.4314346E-1,-4.0255383E-1,-8.770095E-2,2.0576765E-1,-2.1428503E-3,1.4851367E-4,-3.2335806E-3,-5.3883735E-3,1.172971E-3,-2.0057617E-3,2.9624866E-3,9.1315515E-4],"categories":[],"categories_nodes":[],"categories_segments":[],"categories_sizes":[],"default_left":[0,0,0,0,0,0,0,0,0,0,0,0,0,0,0],"id":58,"left_children":[1,3,5,7,9,11,13,-1,-1,-1,-1,-1,-1,-1,-1],"loss_changes":[1.8354759E2,5.587555E1,7.438256E1,1.7795948E1,1.87294E1,4.2900494E1,1.672583E1,0E0,0E0,0E0,0E0,0E0,0E0,0E0,0E0],"parents":[2147483647,0,0,1,1,2,2,3,3,4,4,5,5,6,6],"right_children":[2,4,6,8,10,12,14,-1,-1,-1,-1,-1,-1,-1,-1],"split_conditions":[1.5E1,1.2E1,5.24E-1,6E0,2.3E1,-4.8E0,4.19E-1,-2.1428503E-3,1.4851367E-4,-3.2335806E-3,-5.3883735E-3,1.172971E-3,-2.0057617E-3,2.9624866E-3,9.1315515E-4],"split_indices":[51,80,55,77,80,25,3,0,0,0,0,0,0,0,0],"split_type":[0,0,0,0,0,0,0,0,0,0,0,0,0,0,0],"sum_hessian":[6.8011846E3,3.3324453E3,3.4687393E3,1.5819868E3,1.7504584E3,1.8520013E3,1.6167378E3,1.0905708E3,4.9141608E2,1.1092402E3,6.4121814E2,6.576226E2,1.1943788E3,9.02037E2,7.147008E2],"tree_param":{"num_deleted":"0","num_feature":"106","num_nodes":"15","size_leaf_vector":"1"}},{"base_weights":[1.1191734E-1,2.7948576E-1,-4.910113E-2,1.4314343E-1,4.0255383E-1,8.7700956E-2,-2.0576765E-1,2.14285E-3,-1.4851386E-4,3.2335806E-3,5.3883735E-3,-1.1729706E-3,2.0057617E-3,-2.9624866E-3,-9.1315515E-4],"categories":[],"categories_nodes":[],"categories_segments":[],"categories_sizes":[],"default_left":[0,0,0,0,0,0,0,0,0,0,0,0,0,0,0],"id":59,"left_children":[1,3,5,7,9,11,13,-1,-1,-1,-1,-1,-1,-1,-1],"loss_changes":[1.835476E2,5.587555E1,7.438255E1,1.7795948E1,1.872937E1,4.290049E1,1.6725838E1,0E0,0E0,0E0,0E0,0E0,0E0,0E0,0E0],"parents":[2147483647,0,0,1,1,2,2,3,3,4,4,5,5,6,6],"right_children":[2,4,6,8,10,12,14,-1,-1,-1,-1,-1,-1,-1,-1],"split_conditions":[1.5E1,1.2E1,5.24E-1,6E0,2.3E1,-4.8E0,4.19E-1,2.14285E-3,-1.4851386E-4,3.2335806E-3,5.3883735E-3,-1.1729706E-3,2.0057617E-3,-2.9624866E-3,-9.1315515E-4],"split_indices":[51,80,55,77,80,25,3,0,0,0,0,0,0,0,0],"split_type":[0,0,0,0,0,0,0,0,0,0,0,0,0,0,0],"sum_hessian":[6.8011846E3,3.3324453E3,3.468739E3,1.5819868E3,1.7504584E3,1.8520013E3,1.6167378E3,1.0905708E3,4.9141608E2,1.1092402E3,6.4121814E2,6.576226E2,1.1943787E3,9.02037E2,7.147008E2],"tree_param":{"num_deleted":"0","num_feature":"106","num_nodes":"15","size_leaf_vector":"1"}},{"base_weights":[-1.10846125E-1,-2.7686733E-1,4.862183E-2,-1.4173707E-1,-3.9894697E-1,-1.6894546E-1,1.4579406E-1,-2.1219642E-3,1.4703041E-4,-3.2032663E-3,-5.343933E-3,4.3514516E-4,-2.853928E-3,4.985689E-4,2.7060837E-3],"categories":[],"categories_nodes":[],"categories_segments":[],"categories_sizes":[],"default_left":[0,0,0,0,0,0,0,0,0,0,0,0,0,0,0],"id":60,"left_children":[1,3,5,7,9,11,13,-1,-1,-1,-1,-1,-1,-1,-1],"loss_changes":[1.800266E2,5.490001E1,7.33639E1,1.7448957E1,1.8460571E1,2.6520973E1,2.8706982E1,0E0,0E0,0E0,0E0,0E0,0E0,0E0,0E0],"parents":[2147483647,0,0,1,1,2,2,3,3,4,4,5,5,6,6],"right_children":[2,4,6,8,10,12,14,-1,-1,-1,-1,-1,-1,-1,-1],"split_conditions":[1.5E1,1.2E1,-2E0,6E0,2.3E1,-4.8E0,2.4E1,-2.1219642E-3,1.4703041E-4,-3.2032663E-3,-5.343933E-3,4.3514516E-4,-2.853928E-3,4.985689E-4,2.7060837E-3],"split_indices":[51,80,77,77,80,25,51,0,0,0,0,0,0,0,0],"split_type":[0,0,0,0,0,0,0,0,0,0,0,0,0,0,0],"sum_hessian":[6.7983467E3,3.3303752E3,3.4679714E3,1.581723E3,1.7486522E3,1.0704685E3,2.3975027E3,1.090303E3,4.9142E2,1.1085533E3,6.4009894E2,3.7921365E2,6.912549E2,1.3563546E3,1.0411481E3],"tree_param":{"num_deleted":"0","num_feature":"106","num_nodes":"15","size_leaf_vector":"1"}},{"base_weights":[1.10846125E-1,2.7686733E-1,-4.8621837E-2,1.4173707E-1,3.9894697E-1,1.6894545E-1,-1.4579408E-1,2.1219642E-3,-1.4703046E-4,3.2032658E-3,5.3439336E-3,-4.3514522E-4,2.853928E-3,-4.9856893E-4,-2.706084E-3],"categories":[],"categories_nodes":[],"categories_segments":[],"categories_sizes":[],"default_left":[0,0,0,0,0,0,0,0,0,0,0,0,0,0,0],"id":61,"left_children":[1,3,5,7,9,11,13,-1,-1,-1,-1,-1,-1,-1,-1],"loss_changes":[1.8002661E2,5.4899994E1,7.33639E1,1.744896E1,1.8460571E1,2.652097E1,2.870699E1,0E0,0E0,0E0,0E0,0E0,0E0,0E0,0E0],"parents":[2147483647,0,0,1,1,2,2,3,3,4,4,5,5,6,6],"right_children":[2,4,6,8,10,12,14,-1,-1,-1,-1,-1,-1,-1,-1],"split_conditions":[1.5E1,1.2E1,-2E0,6E0,2.3E1,-4.8E0,2.4E1,2.1219642E-3,-1.4703046E-4,3.2032658E-3,5.3439336E-3,-4.3514522E-4,2.853928E-3,-4.9856893E-4,-2.706084E-3],"split_indices":[51,80,77,77,80,25,51,0,0,0,0,0,0,0,0],"split_type":[0,0,0,0,0,0,0,0,0,0,0,0,0,0,0],"sum_hessian":[6.7983467E3,3.3303752E3,3.4679714E3,1.581723E3,1.7486522E3,1.0704685E3,2.397503E3,1.090303E3,4.9142E2,1.1085533E3,6.4009894E2,3.7921365E2,6.9125494E2,1.3563547E3,1.0411481E3],"tree_param":{"num_deleted":"0","num_feature":"106","num_nodes":"15","size_leaf_vector":"1"}},{"base_weights":[-1.097878E-1,-2.156535E-1,1.3634779E-1,-9.1258846E-2,-3.5861742E-1,2.6952229E-3,2.825184E-1,-2.5222187E-3,-5.352986E-5,-4.877348E-3,-2.88879E-3,8.2851626E-4,-1.8333561E-3,1.9351532E-3,4.2011784E-3],"categories":[],"categories_nodes":[],"categories_segments":[],"categories_sizes":[],"default_left":[0,0,0,0,0,0,0,0,0,0,0,0,0,0,0],"id":62,"left_children":[1,3,5,7,9,11,13,-1,-1,-1,-1,-1,-1,-1,-1],"loss_changes":[1.7712454E2,8.448949E1,3.9943604E1,3.515898E1,1.976767E1,1.5956649E1,1.1878647E1,0E0,0E0,0E0,0E0,0E0,0E0,0E0,0E0],"parents":[2147483647,0,0,1,1,2,2,3,3,4,4,5,5,6,6],"right_children":[2,4,6,8,10,12,14,-1,-1,-1,-1,-1,-1,-1,-1],"split_conditions":[2E1,1.4E1,4E-1,7E0,8E0,2.6E1,3.5E1,-2.5222187E-3,-5.352986E-5,-4.877348E-3,-2.88879E-3,8.2851626E-4,-1.8333561E-3,1.9351532E-3,4.2011784E-3],"split_indices":[28,80,77,29,51,103,2,0,0,0,0,0,0,0,0],"split_type":[0,0,0,0,0,0,0,0,0,0,0,0,0,0,0],"sum_hessian":[6.7953696E3,4.7517236E3,2.0436462E3,2.5417524E3,2.2099712E3,1.0680669E3,9.7557935E2,8.8380963E2,1.6579427E3,7.729317E2,1.4370396E3,7.468298E2,3.2123712E2,5.9386053E2,3.8171878E2],"tree_param":{"num_deleted":"0","num_feature":"106","num_nodes":"15","size_leaf_vector":"1"}},{"base_weights":[1.09787814E-1,2.1565351E-1,-1.3634777E-1,9.125885E-2,3.5861742E-1,-2.6951998E-3,-2.8251836E-1,2.5222187E-3,5.3529966E-5,4.8773475E-3,2.88879E-3,-8.2851603E-4,1.8333563E-3,-1.9351528E-3,-4.2011784E-3],"categories":[],"categories_nodes":[],"categories_segments":[],"categories_sizes":[],"default_left":[0,0,0,0,0,0,0,0,0,0,0,0,0,0,0],"id":63,"left_children":[1,3,5,7,9,11,13,-1,-1,-1,-1,-1,-1,-1,-1],"loss_changes":[1.7712454E2,8.4489456E1,3.99436E1,3.515898E1,1.976764E1,1.5956647E1,1.18786545E1,0E0,0E0,0E0,0E0,0E0,0E0,0E0,0E0],"parents":[2147483647,0,0,1,1,2,2,3,3,4,4,5,5,6,6],"right_children":[2,4,6,8,10,12,14,-1,-1,-1,-1,-1,-1,-1,-1],"split_conditions":[2E1,1.4E1,4E-1,7E0,8E0,2.6E1,3.5E1,2.5222187E-3,5.3529966E-5,4.8773475E-3,2.88879E-3,-8.2851603E-4,1.8333563E-3,-1.9351528E-3,-4.2011784E-3],"split_indices":[28,80,77,29,51,103,2,0,0,0,0,0,0,0,0],"split_type":[0,0,0,0,0,0,0,0,0,0,0,0,0,0,0],"sum_hessian":[6.7953696E3,4.7517236E3,2.0436462E3,2.5417524E3,2.2099712E3,1.0680669E3,9.755793E2,8.8380963E2,1.6579427E3,7.729317E2,1.4370396E3,7.468298E2,3.2123712E2,5.9386053E2,3.8171875E2],"tree_param":{"num_deleted":"0","num_feature":"106","num_nodes":"15","size_leaf_vector":"1"}},{"base_weights":[-1.0873603E-1,9.218128E-2,-2.3609313E-1,-2.5669418E-2,2.4939461E-1,-3.2759956E-1,-3.6205243E-2,1.3430497E-3,-1.5362237E-3,3.8317922E-3,1.8677122E-3,-2.6425025E-3,-4.8448695E-3,8.5678964E-4,-1.5955413E-3],"categories":[],"categories_nodes":[],"categories_segments":[],"categories_sizes":[],"default_left":[0,0,0,0,0,0,0,0,0,0,0,0,0,0,0],"id":64,"left_children":[1,3,5,7,9,11,13,-1,-1,-1,-1,-1,-1,-1,-1],"loss_changes":[1.7385727E2,4.8851856E1,7.604628E1,3.0882359E1,9.39254E0,2.8220062E1,1.9662403E1,0E0,0E0,0E0,0E0,0E0,0E0,0E0,0E0],"parents":[2147483647,0,0,1,1,2,2,3,3,4,4,5,5,6,6],"right_children":[2,4,6,8,10,12,14,-1,-1,-1,-1,-1,-1,-1,-1],"split_conditions":[4.69E-1,5.4E-1,3.1E0,-4.9E0,-6.2E0,2.3E1,3.2E0,1.3430497E-3,-1.5362237E-3,3.8317922E-3,1.8677122E-3,-2.6425025E-3,-4.8448695E-3,8.5678964E-4,-1.5955413E-3],"split_indices":[3,55,77,25,25,80,25,0,0,0,0,0,0,0,0],"split_type":[0,0,0,0,0,0,0,0,0,0,0,0,0,0,0],"sum_hessian":[6.792569E3,2.6353474E3,4.1572217E3,1.5067157E3,1.1286316E3,2.851293E3,1.3059286E3,6.695521E2,8.371635E2,3.5822464E2,7.70407E2,2.0330538E3,8.182391E2,6.570178E2,6.4891077E2],"tree_param":{"num_deleted":"0","num_feature":"106","num_nodes":"15","size_leaf_vector":"1"}},{"base_weights":[1.0873602E-1,-9.218127E-2,2.3609313E-1,2.5669422E-2,-2.4939461E-1,3.2759956E-1,3.620524E-2,-1.3430497E-3,1.5362237E-3,-3.8317922E-3,-1.8677121E-3,2.6425025E-3,4.8448695E-3,-8.567894E-4,1.595541E-3],"categories":[],"categories_nodes":[],"categories_segments":[],"categories_sizes":[],"default_left":[0,0,0,0,0,0,0,0,0,0,0,0,0,0,0],"id":65,"left_children":[1,3,5,7,9,11,13,-1,-1,-1,-1,-1,-1,-1,-1],"loss_changes":[1.7385727E2,4.885185E1,7.6046265E1,3.088236E1,9.392548E0,2.8220093E1,1.9662395E1,0E0,0E0,0E0,0E0,0E0,0E0,0E0,0E0],"parents":[2147483647,0,0,1,1,2,2,3,3,4,4,5,5,6,6],"right_children":[2,4,6,8,10,12,14,-1,-1,-1,-1,-1,-1,-1,-1],"split_conditions":[4.69E-1,5.4E-1,3.1E0,-4.9E0,-6.2E0,2.3E1,3.2E0,-1.3430497E-3,1.5362237E-3,-3.8317922E-3,-1.8677121E-3,2.6425025E-3,4.8448695E-3,-8.567894E-4,1.595541E-3],"split_indices":[3,55,77,25,25,80,25,0,0,0,0,0,0,0,0],"split_type":[0,0,0,0,0,0,0,0,0,0,0,0,0,0,0],"sum_hessian":[6.792569E3,2.6353474E3,4.1572217E3,1.5067157E3,1.1286317E3,2.851293E3,1.3059286E3,6.695521E2,8.371635E2,3.5822467E2,7.70407E2,2.0330538E3,8.182391E2,6.570178E2,6.4891077E2],"tree_param":{"num_deleted":"0","num_feature":"106","num_nodes":"15","size_leaf_vector":"1"}},{"base_weights":[-1.0769618E-1,-2.6981142E-1,4.7861256E-2,-3.586377E-1,-9.2455596E-2,-1.647881E-1,1.4280243E-1,-2.919555E-3,-5.230253E-3,-1.7832699E-3,1.7321645E-4,9.703174E-5,-3.001292E-3,4.953385E-4,2.642685E-3],"categories":[],"categories_nodes":[],"categories_segments":[],"categories_sizes":[],"default_left":[0,0,0,0,0,0,0,0,0,0,0,0,0,0,0],"id":66,"left_children":[1,3,5,7,9,11,13,-1,-1,-1,-1,-1,-1,-1,-1],"loss_changes":[1.7126065E2,5.2354324E1,7.0004395E1,2.4131195E1,1.0476572E1,2.5280413E1,2.7141235E1,0E0,0E0,0E0,0E0,0E0,0E0,0E0,0E0],"parents":[2147483647,0,0,1,1,2,2,3,3,4,4,5,5,6,6],"right_children":[2,4,6,8,10,12,14,-1,-1,-1,-1,-1,-1,-1,-1],"split_conditions":[1.5E1,2.9E0,-2E0,2.3E1,1.16E1,-3.7E0,2.4E1,-2.919555E-3,-5.230253E-3,-1.7832699E-3,1.7321645E-4,9.703174E-5,-3.001292E-3,4.953385E-4,2.642685E-3],"split_indices":[51,77,77,80,60,25,51,0,0,0,0,0,0,0,0],"split_type":[0,0,0,0,0,0,0,0,0,0,0,0,0,0,0],"sum_hessian":[6.7896313E3,3.324376E3,3.4652554E3,2.2143345E3,1.1100415E3,1.0693619E3,2.3958936E3,1.5772961E3,6.3703827E2,6.22487E2,4.8755444E2,4.675246E2,6.018373E2,1.3560493E3,1.0398444E3],"tree_param":{"num_deleted":"0","num_feature":"106","num_nodes":"15","size_leaf_vector":"1"}},{"base_weights":[1.0769618E-1,2.6981142E-1,-4.7861256E-2,3.586377E-1,9.245556E-2,1.647881E-1,-1.4280243E-1,2.9195552E-3,5.2302526E-3,1.7832696E-3,-1.7321683E-4,-9.7031676E-5,3.001292E-3,-4.953383E-4,-2.642685E-3],"categories":[],"categories_nodes":[],"categories_segments":[],"categories_sizes":[],"default_left":[0,0,0,0,0,0,0,0,0,0,0,0,0,0,0],"id":67,"left_children":[1,3,5,7,9,11,13,-1,-1,-1,-1,-1,-1,-1,-1],"loss_changes":[1.7126064E2,5.235434E1,7.000438E1,2.4131195E1,1.0476572E1,2.5280409E1,2.7141254E1,0E0,0E0,0E0,0E0,0E0,0E0,0E0,0E0],"parents":[2147483647,0,0,1,1,2,2,3,3,4,4,5,5,6,6],"right_children":[2,4,6,8,10,12,14,-1,-1,-1,-1,-1,-1,-1,-1],"split_conditions":[1.5E1,2.9E0,-2E0,2.3E1,1.16E1,-3.7E0,2.4E1,2.9195552E-3,5.2302526E-3,1.7832696E-3,-1.7321683E-4,-9.7031676E-5,3.001292E-3,-4.953383E-4,-2.642685E-3],"split_indices":[51,77,77,80,60,25,51,0,0,0,0,0,0,0,0],"split_type":[0,0,0,0,0,0,0,0,0,0,0,0,0,0,0],"sum_hessian":[6.7896313E3,3.324376E3,3.4652554E3,2.2143345E3,1.1100415E3,1.0693619E3,2.3958936E3,1.5772961E3,6.3703827E2,6.22487E2,4.8755444E2,4.675246E2,6.018373E2,1.3560492E3,1.0398442E3],"tree_param":{"num_deleted":"0","num_feature":"106","num_nodes":"15","size_leaf_vector":"1"}},{"base_weights":[-1.0666945E-1,-2.6729307E-1,4.73948E-2,-1.3635461E-1,-3.8597995E-1,-7.375996E-2,2.1171105E-1,-2.055851E-3,1.7245488E-4,-3.0921404E-3,-5.187866E-3,1.2461925E-3,-1.8179597E-3,3.7094199E-3,1.5733952E-3],"categories":[],"categories_nodes":[],"categories_segments":[],"categories_sizes":[],"default_left":[0,0,0,0,0,0,0,0,0,0,0,0,0,0,0],"id":68,"left_children":[1,3,5,7,9,11,13,-1,-1,-1,-1,-1,-1,-1,-1],"loss_changes":[1.679802E2,5.1592056E1,6.90032E1,1.68219E1,1.7605438E1,4.2788254E1,1.2676773E1,0E0,0E0,0E0,0E0,0E0,0E0,0E0,0E0],"parents":[2147483647,0,0,1,1,2,2,3,3,4,4,5,5,6,6],"right_children":[2,4,6,8,10,12,14,-1,-1,-1,-1,-1,-1,-1,-1],"split_conditions":[1.5E1,1.2E1,5.45E-1,6E0,2.3E1,-4.8E0,-6E0,-2.055851E-3,1.7245488E-4,-3.0921404E-3,-5.187866E-3,1.2461925E-3,-1.8179597E-3,3.7094199E-3,1.5733952E-3],"split_indices":[51,80,55,77,80,25,25,0,0,0,0,0,0,0,0],"split_type":[0,0,0,0,0,0,0,0,0,0,0,0,0,0,0],"sum_hessian":[6.7865654E3,3.3221929E3,3.4643723E3,1.5805917E3,1.7416013E3,1.9943994E3,1.4699729E3,1.0892896E3,4.9130206E2,1.1057664E3,6.358349E2,7.0313214E2,1.2912673E3,3.726928E2,1.0972802E3],"tree_param":{"num_deleted":"0","num_feature":"106","num_nodes":"15","size_leaf_vector":"1"}},{"base_weights":[1.0666944E-1,2.6729307E-1,-4.739481E-2,1.3635463E-1,3.8597992E-1,7.375995E-2,-2.1171106E-1,2.0558513E-3,-1.7245463E-4,3.0921404E-3,5.187866E-3,-1.2461926E-3,1.8179597E-3,-3.7094199E-3,-1.5733952E-3],"categories":[],"categories_nodes":[],"categories_segments":[],"categories_sizes":[],"default_left":[0,0,0,0,0,0,0,0,0,0,0,0,0,0,0],"id":69,"left_children":[1,3,5,7,9,11,13,-1,-1,-1,-1,-1,-1,-1,-1],"loss_changes":[1.679802E2,5.1592026E1,6.90032E1,1.682189E1,1.7605469E1,4.2788254E1,1.2676773E1,0E0,0E0,0E0,0E0,0E0,0E0,0E0,0E0],"parents":[2147483647,0,0,1,1,2,2,3,3,4,4,5,5,6,6],"right_children":[2,4,6,8,10,12,14,-1,-1,-1,-1,-1,-1,-1,-1],"split_conditions":[1.5E1,1.2E1,5.45E-1,6E0,2.3E1,-4.8E0,-6E0,2.0558513E-3,-1.7245463E-4,3.0921404E-3,5.187866E-3,-1.2461926E-3,1.8179597E-3,-3.7094199E-3,-1.5733952E-3],"split_indices":[51,80,55,77,80,25,25,0,0,0,0,0,0,0,0],"split_type":[0,0,0,0,0,0,0,0,0,0,0,0,0,0,0],"sum_hessian":[6.7865654E3,3.3221929E3,3.4643723E3,1.5805917E3,1.7416013E3,1.9943995E3,1.4699729E3,1.0892896E3,4.9130206E2,1.1057664E3,6.358349E2,7.0313214E2,1.2912673E3,3.726928E2,1.0972802E3],"tree_param":{"num_deleted":"0","num_feature":"106","num_nodes":"15","size_leaf_vector":"1"}},{"base_weights":[-1.0565224E-1,-2.0807455E-1,1.3225394E-1,-1.2724838E-1,-4.1654596E-1,-1.3218772E-1,2.023778E-1,-2.8059946E-3,-3.9198375E-4,-3.577656E-3,-5.4686395E-3,-2.2707647E-3,7.078199E-4,3.2944062E-3,1.202466E-3],"categories":[],"categories_nodes":[],"categories_segments":[],"categories_sizes":[],"default_left":[0,0,0,0,0,0,0,0,0,0,0,0,0,0,0],"id":70,"left_children":[1,3,5,7,9,11,13,-1,-1,-1,-1,-1,-1,-1,-1],"loss_changes":[1.6534421E2,7.986743E1,3.79005E1,4.6159035E1,9.951843E0,8.27239E0,1.6811333E1,0E0,0E0,0E0,0E0,0E0,0E0,0E0,0E0],"parents":[2147483647,0,0,1,1,2,2,3,3,4,4,5,5,6,6],"right_children":[2,4,6,8,10,12,14,-1,-1,-1,-1,-1,-1,-1,-1],"split_conditions":[2E1,2E1,3.59E-1,7E0,3.7E1,2.7E1,-6.2E0,-2.8059946E-3,-3.9198375E-4,-3.577656E-3,-5.4686395E-3,-2.2707647E-3,7.078199E-4,3.2944062E-3,1.202466E-3],"split_indices":[28,80,55,27,54,28,25,0,0,0,0,0,0,0,0],"split_type":[0,0,0,0,0,0,0,0,0,0,0,0,0,0,0],"sum_hessian":[6.7834766E3,4.742068E3,2.0414087E3,3.418353E3,1.3237148E3,4.2768713E2,1.6137216E3,1.2460317E3,2.1723213E3,9.148254E2,4.088895E2,2.9135794E2,1.363292E2,6.3237744E2,9.813441E2],"tree_param":{"num_deleted":"0","num_feature":"106","num_nodes":"15","size_leaf_vector":"1"}},{"base_weights":[1.0565224E-1,2.0807455E-1,-1.3225393E-1,1.2724838E-1,4.1654593E-1,1.3218768E-1,-2.0237777E-1,2.805995E-3,3.919836E-4,3.5776559E-3,5.468639E-3,2.2707642E-3,-7.0782035E-4,-3.2944055E-3,-1.2024657E-3],"categories":[],"categories_nodes":[],"categories_segments":[],"categories_sizes":[],"default_left":[0,0,0,0,0,0,0,0,0,0,0,0,0,0,0],"id":71,"left_children":[1,3,5,7,9,11,13,-1,-1,-1,-1,-1,-1,-1,-1],"loss_changes":[1.6534418E2,7.986745E1,3.7900482E1,4.6159054E1,9.951828E0,8.27239E0,1.6811333E1,0E0,0E0,0E0,0E0,0E0,0E0,0E0,0E0],"parents":[2147483647,0,0,1,1,2,2,3,3,4,4,5,5,6,6],"right_children":[2,4,6,8,10,12,14,-1,-1,-1,-1,-1,-1,-1,-1],"split_conditions":[2E1,2E1,3.59E-1,7E0,3.7E1,2.7E1,-6.2E0,2.805995E-3,3.919836E-4,3.5776559E-3,5.468639E-3,2.2707642E-3,-7.0782035E-4,-3.2944055E-3,-1.2024657E-3],"split_indices":[28,80,55,27,54,28,25,0,0,0,0,0,0,0,0],"split_type":[0,0,0,0,0,0,0,0,0,0,0,0,0,0,0],"sum_hessian":[6.7834766E3,4.742068E3,2.0414087E3,3.418353E3,1.3237148E3,4.2768713E2,1.6137216E3,1.2460317E3,2.1723213E3,9.148254E2,4.088895E2,2.9135794E2,1.3632921E2,6.3237744E2,9.813441E2],"tree_param":{"num_deleted":"0","num_feature":"106","num_nodes":"15","size_leaf_vector":"1"}},{"base_weights":[-1.0464405E-1,-2.6267815E-1,4.682482E-2,-8.0530785E-2,-3.4599724E-1,-1.4231361E-1,1.4907038E-1,-8.400231E-5,-2.2082003E-3,-2.8198846E-3,-5.1121507E-3,5.5293966E-4,-2.5117036E-3,5.7600107E-4,2.6971805E-3],"categories":[],"categories_nodes":[],"categories_segments":[],"categories_sizes":[],"default_left":[0,0,0,0,0,0,0,0,0,0,0,0,0,0,0],"id":72,"left_children":[1,3,5,7,9,11,13,-1,-1,-1,-1,-1,-1,-1,-1],"loss_changes":[1.6234201E2,5.034189E1,6.70005E1,1.0552306E1,2.3935669E1,2.6167807E1,2.4799988E1,0E0,0E0,0E0,0E0,0E0,0E0,0E0,0E0],"parents":[2147483647,0,0,1,1,2,2,3,3,4,4,5,5,6,6],"right_children":[2,4,6,8,10,12,14,-1,-1,-1,-1,-1,-1,-1,-1],"split_conditions":[1.5E1,9E0,-1.4E0,6.71E-1,2.3E1,-4.8E0,2.4E1,-8.400231E-5,-2.2082003E-3,-2.8198846E-3,-5.1121507E-3,5.5293966E-4,-2.5117036E-3,5.7600107E-4,2.6971805E-3],"split_indices":[51,103,77,3,80,25,51,0,0,0,0,0,0,0,0],"split_type":[0,0,0,0,0,0,0,0,0,0,0,0,0,0,0],"sum_hessian":[6.780469E3,3.3179614E3,3.462508E3,1.0419901E3,2.2759712E3,1.2148438E3,2.2476643E3,6.8886554E2,3.531245E2,1.6423846E3,6.335866E2,4.316897E2,7.83154E2,1.2792587E3,9.6840576E2],"tree_param":{"num_deleted":"0","num_feature":"106","num_nodes":"15","size_leaf_vector":"1"}},{"base_weights":[1.0464405E-1,2.6267815E-1,-4.682481E-2,8.053076E-2,3.4599724E-1,1.4231363E-1,-1.4907037E-1,8.400218E-5,2.2081996E-3,2.8198846E-3,5.1121507E-3,-5.529397E-4,2.5117039E-3,-5.76001E-4,-2.6971803E-3],"categories":[],"categories_nodes":[],"categories_segments":[],"categories_sizes":[],"default_left":[0,0,0,0,0,0,0,0,0,0,0,0,0,0,0],"id":73,"left_children":[1,3,5,7,9,11,13,-1,-1,-1,-1,-1,-1,-1,-1],"loss_changes":[1.6234198E2,5.0341904E1,6.700049E1,1.0552303E1,2.3935669E1,2.6167809E1,2.4799988E1,0E0,0E0,0E0,0E0,0E0,0E0,0E0,0E0],"parents":[2147483647,0,0,1,1,2,2,3,3,4,4,5,5,6,6],"right_children":[2,4,6,8,10,12,14,-1,-1,-1,-1,-1,-1,-1,-1],"split_conditions":[1.5E1,9E0,-1.4E0,6.71E-1,2.3E1,-4.8E0,2.4E1,8.400218E-5,2.2081996E-3,2.8198846E-3,5.1121507E-3,-5.529397E-4,2.5117039E-3,-5.76001E-4,-2.6971803E-3],"split_indices":[51,103,77,3,80,25,51,0,0,0,0,0,0,0,0],"split_type":[0,0,0,0,0,0,0,0,0,0,0,0,0,0,0],"sum_hessian":[6.7804697E3,3.3179614E3,3.462508E3,1.0419901E3,2.2759712E3,1.2148438E3,2.2476646E3,6.8886554E2,3.531245E2,1.6423846E3,6.335866E2,4.316897E2,7.83154E2,1.2792587E3,9.6840576E2],"tree_param":{"num_deleted":"0","num_feature":"106","num_nodes":"15","size_leaf_vector":"1"}},{"base_weights":[-1.0364943E-1,-2.142259E-1,1.0931068E-1,-3.0260435E-1,-2.2221697E-2,-1.5668489E-1,1.7814043E-1,-2.4345177E-3,-4.4962317E-3,9.068373E-4,-1.5346578E-3,-2.4750552E-3,6.9712434E-4,8.771114E-4,2.8890728E-3],"categories":[],"categories_nodes":[],"categories_segments":[],"categories_sizes":[],"default_left":[0,0,0,0,0,0,0,0,0,0,0,0,0,0,0],"id":74,"left_children":[1,3,5,7,9,11,13,-1,-1,-1,-1,-1,-1,-1,-1],"loss_changes":[1.5963922E2,7.57079E1,4.245361E1,2.6462128E1,2.0870613E1,9.822914E0,1.841903E1,0E0,0E0,0E0,0E0,0E0,0E0,0E0,0E0],"parents":[2147483647,0,0,1,1,2,2,3,3,4,4,5,5,6,6],"right_children":[2,4,6,8,10,12,14,-1,-1,-1,-1,-1,-1,-1,-1],"split_conditions":[1.9E1,3.1E0,3.59E-1,2.3E1,3.2E0,2.7E1,2.6E1,-2.4345177E-3,-4.4962317E-3,9.068373E-4,-1.5346578E-3,-2.4750552E-3,6.9712434E-4,8.771114E-4,2.8890728E-3],"split_indices":[27,77,55,80,25,28,51,0,0,0,0,0,0,0,0],"split_type":[0,0,0,0,0,0,0,0,0,0,0,0,0,0,0],"sum_hessian":[6.777208E3,4.460929E3,2.316279E3,3.0544207E3,1.4065083E3,4.758931E2,1.840386E3,2.1799722E3,8.7444855E2,7.562434E2,6.5026495E2,3.395767E2,1.3631642E2,1.0141956E3,8.2619037E2],"tree_param":{"num_deleted":"0","num_feature":"106","num_nodes":"15","size_leaf_vector":"1"}},{"base_weights":[1.0364942E-1,2.142259E-1,-1.0931068E-1,3.0260435E-1,2.2221683E-2,1.566849E-1,-1.7814043E-1,2.4345177E-3,4.496232E-3,-9.0683746E-4,1.5346576E-3,2.475055E-3,-6.971235E-4,-8.771115E-4,-2.8890728E-3],"categories":[],"categories_nodes":[],"categories_segments":[],"categories_sizes":[],"default_left":[0,0,0,0,0,0,0,0,0,0,0,0,0,0,0],"id":75,"left_children":[1,3,5,7,9,11,13,-1,-1,-1,-1,-1,-1,-1,-1],"loss_changes":[1.596392E2,7.570792E1,4.245361E1,2.6462128E1,2.0870615E1,9.822907E0,1.841903E1,0E0,0E0,0E0,0E0,0E0,0E0,0E0,0E0],"parents":[2147483647,0,0,1,1,2,2,3,3,4,4,5,5,6,6],"right_children":[2,4,6,8,10,12,14,-1,-1,-1,-1,-1,-1,-1,-1],"split_conditions":[1.9E1,3.1E0,3.59E-1,2.3E1,3.2E0,2.7E1,2.6E1,2.4345177E-3,4.496232E-3,-9.0683746E-4,1.5346576E-3,2.475055E-3,-6.971235E-4,-8.771115E-4,-2.8890728E-3],"split_indices":[27,77,55,80,25,28,51,0,0,0,0,0,0,0,0],"split_type":[0,0,0,0,0,0,0,0,0,0,0,0,0,0,0],"sum_hessian":[6.777208E3,4.460929E3,2.316279E3,3.0544207E3,1.4065083E3,4.7589313E2,1.840386E3,2.1799722E3,8.7444855E2,7.562434E2,6.5026495E2,3.395767E2,1.3631642E2,1.0141957E3,8.2619037E2],"tree_param":{"num_deleted":"0","num_feature":"106","num_nodes":"15","size_leaf_vector":"1"}},{"base_weights":[-1.0266158E-1,-2.5822088E-1,4.6326358E-2,-1.3077854E-1,-3.7412798E-1,-7.1723126E-2,2.0639692E-1,-1.988901E-3,2.0220545E-4,-2.996457E-3,-5.036138E-3,1.1964112E-3,-1.7598278E-3,3.6019278E-3,1.5400734E-3],"categories":[],"categories_nodes":[],"categories_segments":[],"categories_sizes":[],"default_left":[0,0,0,0,0,0,0,0,0,0,0,0,0,0,0],"id":76,"left_children":[1,3,5,7,9,11,13,-1,-1,-1,-1,-1,-1,-1,-1],"loss_changes":[1.570345E2,4.8912613E1,6.5423904E1,1.6256853E1,1.658525E1,3.9784203E1,1.17847595E1,0E0,0E0,0E0,0E0,0E0,0E0,0E0,0E0],"parents":[2147483647,0,0,1,1,2,2,3,3,4,4,5,5,6,6],"right_children":[2,4,6,8,10,12,14,-1,-1,-1,-1,-1,-1,-1,-1],"split_conditions":[1.5E1,1.2E1,5.45E-1,6E0,2.3E1,-4.8E0,-6E0,-1.988901E-3,2.0220545E-4,-2.996457E-3,-5.036138E-3,1.1964112E-3,-1.7598278E-3,3.6019278E-3,1.5400734E-3],"split_indices":[51,80,55,77,80,25,25,0,0,0,0,0,0,0,0],"split_type":[0,0,0,0,0,0,0,0,0,0,0,0,0,0,0],"sum_hessian":[6.7740884E3,3.3136016E3,3.4604866E3,1.579279E3,1.7343226E3,1.9919829E3,1.4685037E3,1.0881342E3,4.9114487E2,1.1031105E3,6.312121E2,7.0247394E2,1.289509E3,3.7163867E2,1.096865E3],"tree_param":{"num_deleted":"0","num_feature":"106","num_nodes":"15","size_leaf_vector":"1"}},{"base_weights":[1.0266159E-1,2.5822088E-1,-4.6326354E-2,1.3077854E-1,3.7412798E-1,7.172312E-2,-2.0639691E-1,1.9889013E-3,-2.0220563E-4,2.996457E-3,5.036139E-3,-1.1964116E-3,1.759828E-3,-3.601927E-3,-1.5400734E-3],"categories":[],"categories_nodes":[],"categories_segments":[],"categories_sizes":[],"default_left":[0,0,0,0,0,0,0,0,0,0,0,0,0,0,0],"id":77,"left_children":[1,3,5,7,9,11,13,-1,-1,-1,-1,-1,-1,-1,-1],"loss_changes":[1.5703452E2,4.891263E1,6.5423904E1,1.6256859E1,1.6585236E1,3.9784206E1,1.1784752E1,0E0,0E0,0E0,0E0,0E0,0E0,0E0,0E0],"parents":[2147483647,0,0,1,1,2,2,3,3,4,4,5,5,6,6],"right_children":[2,4,6,8,10,12,14,-1,-1,-1,-1,-1,-1,-1,-1],"split_conditions":[1.5E1,1.2E1,5.45E-1,6E0,2.3E1,-4.8E0,-6E0,1.9889013E-3,-2.0220563E-4,2.996457E-3,5.036139E-3,-1.1964116E-3,1.759828E-3,